Time (d),Average (kg),Additions
304.05206,-0.0009
304.05207,-0.0008
304.05208,-0.0003
304.05209,-0.0007
304.05211,-0.0022
304.05212,-0.0041
304.05213,-0.0047
304.05214,-0.0048
304.05215,-0.0052
304.05216,-0.0068
304.05218,-0.0084
304.05219,-0.0088
304.0522,-0.0100
304.05221,-0.0118
304.05222,-0.0124
304.05223,-0.0124
304.05225,-0.0127
304.05226,-0.0135
304.05227,-0.0142
304.05228,-0.0153
304.05229,-0.0158
304.0523,-0.0162
304.05231,-0.0173
304.05233,-0.0196
304.05234,-0.0215
304.05235,-0.0253
304.05236,-0.0303
304.05237,-0.0364
304.05238,-0.0426
304.0524,-0.0462
304.05241,-0.0490
304.05242,-0.0509
304.05243,-0.0515
304.05244,-0.0531
304.05245,-0.0539
304.05247,-0.0538
304.05248,-0.0530
304.05249,-0.0524
304.0525,-0.0527
304.05251,-0.0534
304.05252,-0.0521
304.05253,-0.0524
304.05255,-0.0539
304.05256,-0.0540
304.05257,-0.0535
304.05258,-0.0530
304.05259,-0.0537
304.0526,-0.0539
304.05262,-0.0534
304.05263,-0.0533
304.05264,-0.0537
304.05265,-0.0541
304.05266,-0.0543
304.05267,-0.0541
304.05269,-0.0542
304.0527,-0.0540
304.05271,-0.0539
304.05272,-0.0537
304.05273,-0.0531
304.05274,-0.0536
304.05275,-0.0534
304.05277,-0.0539
304.05278,-0.0547
304.05279,-0.0536
304.0528,-0.0535
304.05281,-0.0542
304.05282,-0.0534
304.05284,-0.0526
304.05285,-0.0529
304.05286,-0.0536
304.05287,-0.0538
304.05288,-0.0535
304.05289,-0.0536
304.05291,-0.0526
304.05292,-0.0532
304.05293,-0.0535
304.05294,-0.0529
304.05295,-0.0529
304.05296,-0.0532
304.05297,-0.0534
304.05299,-0.0538
304.053,-0.0533
304.05301,-0.0531
304.05302,-0.0532
304.05303,-0.0528
304.05304,-0.0532
304.05306,-0.0531
304.05307,-0.0532
304.05308,-0.0538
304.05309,-0.0534
304.0531,-0.0534
304.05311,-0.0532
304.05313,-0.0531
304.05314,-0.0538
304.05315,-0.0541
304.05316,-0.0535
304.05317,-0.0531
304.05318,-0.0533
304.05319,-0.0529
304.05321,-0.0532
304.05322,-0.0533
304.05323,-0.0527
304.05324,-0.0521
304.05325,-0.0529
304.05326,-0.0530
304.05328,-0.0525
304.05329,-0.0532
304.0533,-0.0533
304.05331,-0.0531
304.05332,-0.0529
304.05333,-0.0537
304.05334,-0.0546
304.05336,-0.0547
304.05337,-0.0535
304.05338,-0.0524
304.05339,-0.0529
304.0534,-0.0530
304.05341,-0.0527
304.05343,-0.0526
304.05344,-0.0522
304.05345,-0.0522
304.05346,-0.0518
304.05347,-0.0518
304.05348,-0.0526
304.0535,-0.0524
304.05351,-0.0520
304.05352,-0.0530
304.05353,-0.0528
304.05354,-0.0529
304.05355,-0.0536
304.05356,-0.0527
304.05358,-0.0523
304.05359,-0.0532
304.0536,-0.0536
304.05361,-0.0527
304.05362,-0.0527
304.05363,-0.0523
304.05365,-0.0524
304.05366,-0.0526
304.05367,-0.0523
304.05368,-0.0528
304.05369,-0.0532
304.0537,-0.0531
304.05372,-0.0528
304.05373,-0.0523
304.05374,-0.0519
304.05375,-0.0523
304.05376,-0.0534
304.05377,-0.0547
304.05378,-0.0546
304.0538,-0.0533
304.05381,-0.0534
304.05382,-0.0531
304.05383,-0.0526
304.05384,-0.0531
304.05385,-0.0530
304.05387,-0.0524
304.05388,-0.0530
304.05389,-0.0529
304.0539,-0.0528
304.05391,-0.0520
304.05392,-0.0509
304.05394,-0.0504
304.05395,-0.0503
304.05396,-0.0508
304.05397,-0.0504
304.05398,-0.0508
304.05399,-0.0518
304.054,-0.0513
304.05402,-0.0518
304.05403,-0.0521
304.05404,-0.0522
304.05405,-0.0515
304.05406,-0.0516
304.05407,-0.0582
304.05409,-0.1047
304.0541,-0.1676
304.05411,-0.1910
304.05412,-0.1888
304.05413,-0.1890
304.05414,-0.1888
304.05416,-0.1871
304.05417,-0.1869
304.05419,-0.1866
304.0542,-0.1870
304.0542,-0.1867
304.05421,-0.1861
304.05422,-0.1853,Something was added!
304.05424,-0.1299
304.05425,-0.0521
304.05426,-0.0456
304.05427,-0.0465
304.05428,-0.0478
304.05429,-0.0479
304.05431,-0.0475
304.05432,-0.0482
304.05433,-0.0482
304.05434,-0.0483
304.05435,-0.0480
304.05437,-0.0475
304.05439,-0.0478
304.0544,-0.0475
304.05441,-0.0476
304.05442,-0.0480
304.05443,-0.0480
304.05444,-0.0479
304.05444,-0.0487
304.05446,-0.0495
304.05447,-0.0487
304.05448,-0.0475
304.05449,-0.0472
304.0545,-0.0481
304.05451,-0.0483
304.05453,-0.0472
304.05455,-0.0469
304.05456,-0.0469
304.05457,-0.0474
304.05458,-0.0477
304.05459,-0.0473
304.05461,-0.0471
304.05462,-0.0470
304.05463,-0.0475
304.05464,-0.0477
304.05465,-0.0473
304.05466,-0.0473
304.05468,-0.0473
304.05469,-0.0478
304.05469,-0.0478
304.0547,-0.0472
304.05471,-0.0472
304.05473,-0.0480
304.05475,-0.0480
304.05476,-0.0475
304.05477,-0.0473
304.05478,-0.0472
304.05479,-0.0470
304.0548,-0.0475
304.05481,-0.0475
304.05483,-0.0469
304.05484,-0.0478
304.05485,-0.0479
304.05486,-0.0471
304.05487,-0.0474
304.05488,-0.0477
304.0549,-0.0467
304.05491,-0.0463
304.05492,-0.0466
304.05493,-0.0472
304.05494,-0.0476
304.05495,-0.0469
304.05497,-0.0462
304.05498,-0.0467
304.05499,-0.0478
304.055,-0.0480
304.05501,-0.0477
304.05502,-0.0471
304.05503,-0.0465
304.05505,-0.0463
304.05506,-0.0467
304.05507,-0.0477
304.05508,-0.0473
304.05509,-0.0479
304.0551,-0.0479
304.05512,-0.0469
304.05513,-0.0475
304.05514,-0.0477
304.05515,-0.0481
304.05516,-0.0479
304.05517,-0.0474
304.05519,-0.0472
304.0552,-0.0468
304.05521,-0.0464
304.05522,-0.0463
304.05523,-0.0464
304.05524,-0.0469
304.05525,-0.0475
304.05527,-0.0477
304.05528,-0.0480
304.05529,-0.0476
304.0553,-0.0473
304.05531,-0.0472
304.05532,-0.0470
304.05534,-0.0474
304.05535,-0.0470
304.05536,-0.0470
304.05537,-0.0476
304.05538,-0.0480
304.05539,-0.0472
304.05541,-0.0471
304.05542,-0.0468
304.05543,-0.0470
304.05544,-0.0472
304.05545,-0.0471
304.05546,-0.0468
304.05547,-0.0473
304.05549,-0.0472
304.0555,-0.0468
304.05551,-0.0468
304.05552,-0.0468
304.05553,-0.0465
304.05554,-0.0472
304.05556,-0.0474
304.05557,-0.0471
304.05558,-0.0464
304.05559,-0.0461
304.0556,-0.0468
304.05561,-0.0475
304.05563,-0.0473
304.05564,-0.0470
304.05565,-0.0469
304.05566,-0.0465
304.05567,-0.0467
304.05568,-0.0466
304.05569,-0.0463
304.05571,-0.0461
304.05572,-0.0458
304.05573,-0.0463
304.05574,-0.0458
304.05575,-0.0453
304.05576,-0.0460
304.05578,-0.0466
304.05579,-0.0465
304.0558,-0.0464
304.05581,-0.0458
304.05582,-0.0460
304.05583,-0.0464
304.05584,-0.0476
304.05586,-0.0480
304.05587,-0.0480
304.05588,-0.0478
304.05589,-0.0457
304.0559,-0.0451
304.05591,-0.0460
304.05593,-0.0467
304.05594,-0.0479
304.05595,-0.0474
304.05596,-0.0476
304.05597,-0.0470
304.05598,-0.0464
304.056,-0.0464
304.05601,-0.0458
304.05602,-0.0462
304.05603,-0.0463
304.05604,-0.0459
304.05605,-0.0469
304.05606,-0.0474
304.05608,-0.0460
304.05609,-0.0459
304.0561,-0.0468
304.05611,-0.0470
304.05612,-0.0459
304.05613,-0.0452
304.05615,-0.0454
304.05616,-0.0460
304.05617,-0.0469
304.05618,-0.0469
304.05619,-0.0467
304.0562,-0.0462
304.05622,-0.0462
304.05623,-0.0460
304.05624,-0.0450
304.05625,-0.0463
304.05626,-0.0473
304.05627,-0.0472
304.05628,-0.0469
304.0563,-0.0465
304.05631,-0.0468
304.05632,-0.0466
304.05633,-0.0461
304.05634,-0.0456
304.05635,-0.0461
304.05637,-0.0461
304.05638,-0.0458
304.05639,-0.0456
304.0564,-0.0458
304.05641,-0.0452
304.05642,-0.0451
304.05644,-0.0457
304.05645,-0.0457
304.05646,-0.0447
304.05647,-0.0455
304.05648,-0.0457
304.05649,-0.0450
304.0565,-0.0455
304.05652,-0.0455
304.05653,-0.0450
304.05654,-0.0449
304.05655,-0.0457
304.05656,-0.0448
304.05657,-0.0448
304.05659,-0.0456
304.0566,-0.0453
304.05661,-0.0448
304.05662,-0.0445
304.05663,-0.0449
304.05664,-0.0443
304.05666,-0.0441
304.05667,-0.0448
304.05668,-0.0455
304.05669,-0.0459
304.0567,-0.0453
304.05671,-0.0445
304.05672,-0.0450
304.05674,-0.0464
304.05675,-0.0469
304.05676,-0.0457
304.05677,-0.0456
304.05678,-0.0455
304.05679,-0.0458
304.05681,-0.0460
304.05682,-0.0450
304.05683,-0.0457
304.05684,-0.0459
304.05685,-0.0454
304.05686,-0.0453
304.05688,-0.0459
304.05689,-0.0463
304.0569,-0.0453
304.05691,-0.0449
304.05692,-0.0453
304.05693,-0.0452
304.05694,-0.0452
304.05696,-0.0452
304.05697,-0.0445
304.05698,-0.0447
304.05699,-0.0444
304.057,-0.0435
304.05701,-0.0442
304.05703,-0.0448
304.05704,-0.0450
304.05705,-0.0444
304.05706,-0.0444
304.05707,-0.0446
304.05708,-0.0440
304.05709,-0.0436
304.05711,-0.0444
304.05712,-0.0444
304.05713,-0.0439
304.05714,-0.0439
304.05715,-0.0440
304.05716,-0.0445
304.05718,-0.0453
304.05719,-0.0451
304.0572,-0.0452
304.05721,-0.0443
304.05722,-0.0448
304.05723,-0.0456
304.05725,-0.0450
304.05726,-0.0447
304.05727,-0.0452
304.05728,-0.0444
304.05729,-0.0439
304.0573,-0.0443
304.05731,-0.0441
304.05733,-0.0441
304.05734,-0.0439
304.05735,-0.0437
304.05736,-0.0436
304.05737,-0.0440
304.05738,-0.0453
304.0574,-0.0450
304.05741,-0.0441
304.05742,-0.0439
304.05743,-0.0441
304.05744,-0.0441
304.05745,-0.0438
304.05747,-0.0435
304.05748,-0.0443
304.05749,-0.0450
304.0575,-0.0445
304.05751,-0.0437
304.05752,-0.0434
304.05753,-0.0433
304.05755,-0.0441
304.05756,-0.0440
304.05757,-0.0447
304.05758,-0.0441
304.05759,-0.0433
304.0576,-0.0439
304.05762,-0.0442
304.05763,-0.0431
304.05764,-0.0430
304.05765,-0.0432
304.05766,-0.0432
304.05767,-0.0441
304.05769,-0.0444
304.0577,-0.0447
304.05771,-0.0438
304.05772,-0.0441
304.05773,-0.0446
304.05774,-0.0442
304.05775,-0.0439
304.05777,-0.0438
304.05778,-0.0443
304.05779,-0.0448
304.0578,-0.0452
304.05781,-0.0448
304.05782,-0.0439
304.05784,-0.0443
304.05785,-0.0444
304.05786,-0.0438
304.05787,-0.0436
304.05788,-0.0435
304.05789,-0.0439
304.05791,-0.0436
304.05792,-0.0433
304.05793,-0.0431
304.05794,-0.0433
304.05795,-0.0443
304.05796,-0.0447
304.05797,-0.0440
304.05799,-0.0435
304.058,-0.0440
304.05801,-0.0442
304.05802,-0.0440
304.05803,-0.0434
304.05804,-0.0442
304.05806,-0.0436
304.05807,-0.0432
304.05808,-0.0443
304.05809,-0.0439
304.0581,-0.0427
304.05811,-0.0430
304.05813,-0.0441
304.05814,-0.0440
304.05815,-0.0434
304.05816,-0.0435
304.05817,-0.0431
304.05818,-0.0433
304.05819,-0.0433
304.05821,-0.0428
304.05822,-0.0425
304.05823,-0.0427
304.05824,-0.0429
304.05825,-0.0437
304.05826,-0.0432
304.05828,-0.0430
304.05829,-0.0433
304.0583,-0.0434
304.05831,-0.0429
304.05832,-0.0426
304.05833,-0.0428
304.05834,-0.0423
304.05836,-0.0426
304.05837,-0.0434
304.05838,-0.0434
304.05839,-0.0425
304.0584,-0.0423
304.05841,-0.0426
304.05843,-0.0430
304.05844,-0.0436
304.05845,-0.0434
304.05846,-0.0427
304.05847,-0.0429
304.05848,-0.0432
304.0585,-0.0424
304.05851,-0.0418
304.05852,-0.0423
304.05853,-0.0425
304.05854,-0.0423
304.05855,-0.0428
304.05856,-0.0431
304.05858,-0.0428
304.05859,-0.0424
304.0586,-0.0426
304.05861,-0.0426
304.05862,-0.0424
304.05863,-0.0432
304.05865,-0.0435
304.05866,-0.0434
304.05867,-0.0428
304.05868,-0.0427
304.05869,-0.0433
304.0587,-0.0433
304.05872,-0.0427
304.05873,-0.0429
304.05874,-0.0433
304.05875,-0.0429
304.05876,-0.0430
304.05877,-0.0426
304.05878,-0.0422
304.0588,-0.0424
304.05881,-0.0429
304.05882,-0.0420
304.05883,-0.0423
304.05884,-0.0423
304.05885,-0.0430
304.05887,-0.0432
304.05888,-0.0433
304.05889,-0.0429
304.0589,-0.0422
304.05891,-0.0423
304.05892,-0.0425
304.05894,-0.0415
304.05895,-0.0421
304.05896,-0.0425
304.05897,-0.0425
304.05898,-0.0425
304.05899,-0.0429
304.059,-0.0434
304.05902,-0.0441
304.05903,-0.0445
304.05904,-0.0441
304.05905,-0.0427
304.05906,-0.0428
304.05907,-0.0424
304.05909,-0.0429
304.0591,-0.0431
304.05911,-0.0431
304.05912,-0.0432
304.05913,-0.0435
304.05914,-0.0429
304.05916,-0.0427
304.05917,-0.0423
304.05918,-0.0424
304.05919,-0.0428
304.0592,-0.0430
304.05921,-0.0420
304.05922,-0.0417
304.05924,-0.0421
304.05925,-0.0425
304.05926,-0.0424
304.05927,-0.0422
304.05928,-0.0421
304.05929,-0.0416
304.05931,-0.0411
304.05932,-0.0417
304.05933,-0.0423
304.05934,-0.0424
304.05935,-0.0419
304.05936,-0.0426
304.05937,-0.0424
304.05939,-0.0424
304.0594,-0.0423
304.05941,-0.0423
304.05942,-0.0426
304.05943,-0.0416
304.05944,-0.0414
304.05946,-0.0420
304.05947,-0.0424
304.05948,-0.0417
304.05949,-0.0413
304.0595,-0.0412
304.05951,-0.0404
304.05953,-0.0406
304.05954,-0.0411
304.05955,-0.0410
304.05956,-0.0411
304.05957,-0.0415
304.05958,-0.0414
304.05959,-0.0412
304.05961,-0.0414
304.05962,-0.0415
304.05963,-0.0414
304.05964,-0.0416
304.05965,-0.0413
304.05966,-0.0415
304.05968,-0.0421
304.05969,-0.0427
304.0597,-0.0422
304.05971,-0.0424
304.05972,-0.0420
304.05973,-0.0416
304.05975,-0.0408
304.05976,-0.0405
304.05977,-0.0407
304.05978,-0.0415
304.05979,-0.0422
304.0598,-0.0431
304.05981,-0.0425
304.05983,-0.0415
304.05984,-0.0419
304.05985,-0.0417
304.05986,-0.0421
304.05987,-0.0423
304.05988,-0.0415
304.0599,-0.0410
304.05991,-0.0402
304.05992,-0.0408
304.05993,-0.0423
304.05994,-0.0423
304.05995,-0.0423
304.05997,-0.0418
304.05998,-0.0413
304.05999,-0.0423
304.06,-0.0423
304.06001,-0.0417
304.06002,-0.0419
304.06003,-0.0422
304.06005,-0.0427
304.06006,-0.0429
304.06007,-0.0421
304.06008,-0.0413
304.06009,-0.0419
304.0601,-0.0419
304.06012,-0.0421
304.06013,-0.0433
304.06014,-0.0431
304.06015,-0.0414
304.06016,-0.0414
304.06017,-0.0425
304.06019,-0.0427
304.0602,-0.0424
304.06021,-0.0424
304.06022,-0.0420
304.06023,-0.0415
304.06024,-0.0423
304.06025,-0.0425
304.06027,-0.0411
304.06028,-0.0405
304.06029,-0.0406
304.0603,-0.0402
304.06031,-0.0405
304.06032,-0.0407
304.06034,-0.0403
304.06035,-0.0410
304.06036,-0.0421
304.06037,-0.0412
304.06038,-0.0409
304.06039,-0.0416
304.06041,-0.0419
304.06042,-0.0413
304.06043,-0.0411
304.06044,-0.0418
304.06045,-0.0411
304.06046,-0.0406
304.06047,-0.0409
304.06049,-0.0409
304.0605,-0.0419
304.06051,-0.0411
304.06052,-0.0414
304.06053,-0.0421
304.06054,-0.0413
304.06056,-0.0407
304.06057,-0.0413
304.06058,-0.0411
304.06059,-0.0406
304.0606,-0.0401
304.06061,-0.0408
304.06063,-0.0416
304.06064,-0.0411
304.06065,-0.0406
304.06066,-0.0408
304.06067,-0.0419
304.06068,-0.0409
304.06069,-0.0398
304.06071,-0.0401
304.06072,-0.0403
304.06073,-0.0410
304.06074,-0.0407
304.06075,-0.0411
304.06076,-0.0417
304.06078,-0.0412
304.06079,-0.0410
304.0608,-0.0405
304.06081,-0.0405
304.06082,-0.0410
304.06083,-0.0415
304.06084,-0.0410
304.06086,-0.0404
304.06087,-0.0413
304.06088,-0.0416
304.06089,-0.0409
304.0609,-0.0399
304.06091,-0.0400
304.06093,-0.0402
304.06094,-0.0406
304.06095,-0.0410
304.06096,-0.0410
304.06097,-0.0408
304.06098,-0.0408
304.061,-0.0408
304.06101,-0.0401
304.06102,-0.0403
304.06103,-0.0411
304.06104,-0.0411
304.06105,-0.0408
304.06106,-0.0408
304.06108,-0.0406
304.06109,-0.0406
304.0611,-0.0412
304.06111,-0.0410
304.06112,-0.0400
304.06113,-0.0404
304.06115,-0.0415
304.06116,-0.0412
304.06117,-0.0408
304.06118,-0.0410
304.06119,-0.0404
304.0612,-0.0400
304.06122,-0.0407
304.06123,-0.0415
304.06124,-0.0413
304.06125,-0.0413
304.06126,-0.0415
304.06127,-0.0411
304.06128,-0.0410
304.0613,-0.0403
304.06131,-0.0410
304.06132,-0.0428
304.06133,-0.0419
304.06134,-0.0402
304.06135,-0.0405
304.06137,-0.0407
304.06138,-0.0412
304.06139,-0.0422
304.0614,-0.0423
304.06141,-0.0413
304.06142,-0.0417
304.06144,-0.0421
304.06145,-0.0424
304.06146,-0.0421
304.06147,-0.0418
304.06148,-0.0419
304.06149,-0.0415
304.0615,-0.0403
304.06152,-0.0398
304.06153,-0.0404
304.06154,-0.0418
304.06155,-0.0417
304.06156,-0.0410
304.06157,-0.0422
304.06159,-0.0417
304.0616,-0.0419
304.06161,-0.0420
304.06162,-0.0410
304.06163,-0.0412
304.06164,-0.0416
304.06166,-0.0419
304.06167,-0.0417
304.06168,-0.0411
304.06169,-0.0404
304.0617,-0.0405
304.06171,-0.0413
304.06172,-0.0417
304.06174,-0.0413
304.06175,-0.0418
304.06176,-0.0422
304.06177,-0.0416
304.06178,-0.0420
304.06179,-0.0424
304.06182,-0.0421
304.06183,-0.0408
304.06184,-0.0413
304.06184,-0.0420
304.06185,-0.0421
304.06186,-0.0422
304.06187,-0.0417
304.06189,-0.0418
304.0619,-0.0416
304.06191,-0.0410
304.06192,-0.0417
304.06193,-0.0422
304.06194,-0.0415
304.06196,-0.0411
304.06197,-0.0404
304.06198,-0.0407
304.062,-0.0417
304.06201,-0.0419
304.06203,-0.0419
304.06204,-0.0412
304.06205,-0.0412
304.06206,-0.0418
304.06207,-0.0420
304.06208,-0.0412
304.06208,-0.0411
304.06209,-0.0410
304.06211,-0.0410
304.06212,-0.0410
304.06213,-0.0415
304.06214,-0.0412
304.06215,-0.0409
304.06218,-0.0399
304.06219,-0.0393
304.0622,-0.0404
304.06221,-0.0405
304.06222,-0.0413
304.06223,-0.0423
304.06225,-0.0425
304.06226,-0.0417
304.06227,-0.0408
304.06228,-0.0407
304.06229,-0.0417
304.0623,-0.0411
304.06231,-0.0403
304.06233,-0.0406
304.06233,-0.0416
304.06235,-0.0421
304.06236,-0.0411
304.06237,-0.0399
304.06238,-0.0392
304.0624,-0.0395
304.06241,-0.0402
304.06242,-0.0395
304.06243,-0.0385
304.06244,-0.0389
304.06245,-0.0388
304.06247,-0.0392
304.06248,-0.0405
304.06249,-0.0409
304.0625,-0.0407
304.06251,-0.0403
304.06252,-0.0397
304.06253,-0.0400
304.06255,-0.0401
304.06256,-0.0402
304.06257,-0.0392
304.06258,-0.0395
304.06259,-0.0399
304.0626,-0.0399
304.06262,-0.0400
304.06263,-0.0403
304.06264,-0.0397
304.06265,-0.0399
304.06266,-0.0404
304.06267,-0.0406
304.06269,-0.0402
304.0627,-0.0392
304.06271,-0.0391
304.06272,-0.0393
304.06273,-0.0390
304.06274,-0.0388
304.06275,-0.0396
304.06277,-0.0401
304.06278,-0.0398
304.06279,-0.0392
304.0628,-0.0393
304.06281,-0.0393
304.06282,-0.0392
304.06284,-0.0386
304.06285,-0.0392
304.06286,-0.0393
304.06287,-0.0389
304.06288,-0.0387
304.06289,-0.0390
304.06291,-0.0395
304.06292,-0.0398
304.06293,-0.0390
304.06294,-0.0395
304.06295,-0.0394
304.06296,-0.0392
304.06297,-0.0387
304.06299,-0.0392
304.063,-0.0396
304.06301,-0.0388
304.06302,-0.0386
304.06303,-0.0386
304.06304,-0.0391
304.06306,-0.0393
304.06307,-0.0388
304.06308,-0.0386
304.06309,-0.0381
304.0631,-0.0379
304.06311,-0.0388
304.06313,-0.0393
304.06314,-0.0399
304.06315,-0.0401
304.06316,-0.0392
304.06317,-0.0385
304.06318,-0.0388
304.06319,-0.0384
304.06321,-0.0375
304.06322,-0.0375
304.06323,-0.0379
304.06324,-0.0388
304.06325,-0.0394
304.06326,-0.0385
304.06328,-0.0386
304.06329,-0.0389
304.0633,-0.0386
304.06331,-0.0388
304.06332,-0.0394
304.06333,-0.0394
304.06334,-0.0392
304.06336,-0.0390
304.06337,-0.0386
304.06338,-0.0383
304.06339,-0.0382
304.0634,-0.0390
304.06341,-0.0400
304.06343,-0.0390
304.06344,-0.0383
304.06345,-0.0381
304.06346,-0.0380
304.06347,-0.0380
304.06348,-0.0387
304.0635,-0.0392
304.06351,-0.0391
304.06352,-0.0386
304.06353,-0.0379
304.06354,-0.0378
304.06355,-0.0379
304.06356,-0.0380
304.06358,-0.0386
304.06359,-0.0389
304.0636,-0.0383
304.06361,-0.0392
304.06362,-0.0401
304.06363,-0.0395
304.06365,-0.0388
304.06366,-0.0385
304.06367,-0.0390
304.06368,-0.0389
304.06369,-0.0393
304.0637,-0.0395
304.06372,-0.0392
304.06373,-0.0390
304.06374,-0.0388
304.06375,-0.0380
304.06376,-0.0377
304.06377,-0.0384
304.06378,-0.0381
304.0638,-0.0385
304.06381,-0.0392
304.06382,-0.0386
304.06383,-0.0384
304.06384,-0.0383
304.06385,-0.0377
304.06387,-0.0373
304.06388,-0.0382
304.06389,-0.0376
304.0639,-0.0373
304.06391,-0.0375
304.06392,-0.0378
304.06394,-0.0383
304.06395,-0.0385
304.06396,-0.0383
304.06397,-0.0383
304.06398,-0.0383
304.06399,-0.0376
304.064,-0.0381
304.06402,-0.0384
304.06403,-0.0375
304.06404,-0.0376
304.06405,-0.0387
304.06406,-0.0386
304.06407,-0.0381
304.06409,-0.0383
304.0641,-0.0395
304.06411,-0.0390
304.06412,-0.0380
304.06413,-0.0378
304.06414,-0.0376
304.06416,-0.0382
304.06417,-0.0377
304.06418,-0.0366
304.06419,-0.0372
304.0642,-0.0375
304.06421,-0.0375
304.06422,-0.0369
304.06424,-0.0375
304.06425,-0.0381
304.06426,-0.0379
304.06427,-0.0371
304.06428,-0.0375
304.06429,-0.0379
304.06431,-0.0374
304.06432,-0.0369
304.06433,-0.0373
304.06434,-0.0378
304.06435,-0.0374
304.06436,-0.0374
304.06438,-0.0379
304.06439,-0.0382
304.0644,-0.0378
304.06441,-0.0368
304.06442,-0.0372
304.06443,-0.0382
304.06444,-0.0383
304.06446,-0.0371
304.06447,-0.0373
304.06448,-0.0377
304.06449,-0.0379
304.0645,-0.0380
304.06451,-0.0374
304.06453,-0.0373
304.06454,-0.0376
304.06455,-0.0371
304.06456,-0.0373
304.06457,-0.0375
304.06458,-0.0376
304.06459,-0.0377
304.06461,-0.0375
304.06462,-0.0374
304.06463,-0.0372
304.06464,-0.0369
304.06465,-0.0360
304.06466,-0.0367
304.06468,-0.0375
304.06469,-0.0375
304.0647,-0.0378
304.06471,-0.0381
304.06472,-0.0373
304.06473,-0.0366
304.06475,-0.0366
304.06476,-0.0373
304.06477,-0.0382
304.06478,-0.0372
304.06479,-0.0379
304.0648,-0.0377
304.06481,-0.0366
304.06483,-0.0375
304.06484,-0.0381
304.06485,-0.0382
304.06486,-0.0371
304.06487,-0.0369
304.06488,-0.0364
304.0649,-0.0373
304.06491,-0.0378
304.06492,-0.0368
304.06493,-0.0369
304.06494,-0.0363
304.06495,-0.0365
304.06497,-0.0366
304.06498,-0.0361
304.06499,-0.0361
304.065,-0.0369
304.06501,-0.0373
304.06502,-0.0372
304.06503,-0.0373
304.06505,-0.0367
304.06506,-0.0362
304.06507,-0.0363
304.06508,-0.0363
304.06509,-0.0366
304.0651,-0.0367
304.06512,-0.0371
304.06513,-0.0374
304.06514,-0.0373
304.06515,-0.0365
304.06516,-0.0358
304.06517,-0.0364
304.06519,-0.0369
304.0652,-0.0366
304.06521,-0.0360
304.06522,-0.0352
304.06523,-0.0354
304.06524,-0.0359
304.06525,-0.0366
304.06527,-0.0365
304.06528,-0.0360
304.06529,-0.0358
304.0653,-0.0365
304.06531,-0.0377
304.06532,-0.0367
304.06534,-0.0357
304.06535,-0.0360
304.06536,-0.0363
304.06537,-0.0369
304.06538,-0.0370
304.06539,-0.0362
304.06541,-0.0356
304.06542,-0.0355
304.06543,-0.0358
304.06544,-0.0366
304.06545,-0.0366
304.06546,-0.0363
304.06547,-0.0363
304.06549,-0.0362
304.0655,-0.0366
304.06551,-0.0363
304.06552,-0.0366
304.06553,-0.0371
304.06554,-0.0364
304.06556,-0.0365
304.06557,-0.0362
304.06558,-0.0355
304.06559,-0.0359
304.0656,-0.0360
304.06561,-0.0367
304.06563,-0.0365
304.06564,-0.0361
304.06565,-0.0370
304.06566,-0.0367
304.06567,-0.0363
304.06568,-0.0360
304.06569,-0.0363
304.06571,-0.0364
304.06572,-0.0361
304.06573,-0.0357
304.06574,-0.0354
304.06575,-0.0362
304.06576,-0.0367
304.06578,-0.0367
304.06579,-0.0368
304.0658,-0.0362
304.06581,-0.0367
304.06582,-0.0360
304.06583,-0.0347
304.06584,-0.0349
304.06586,-0.0353
304.06587,-0.0351
304.06588,-0.0362
304.06589,-0.0364
304.0659,-0.0356
304.06591,-0.0357
304.06593,-0.0365
304.06594,-0.0364
304.06595,-0.0362
304.06596,-0.0364
304.06597,-0.0358
304.06598,-0.0357
304.066,-0.0352
304.06601,-0.0353
304.06602,-0.0355
304.06603,-0.0350
304.06604,-0.0347
304.06605,-0.0348
304.06606,-0.0353
304.06608,-0.0354
304.06609,-0.0357
304.0661,-0.0357
304.06611,-0.0354
304.06612,-0.0355
304.06613,-0.0351
304.06615,-0.0353
304.06616,-0.0360
304.06617,-0.0358
304.06618,-0.0355
304.06619,-0.0357
304.0662,-0.0360
304.06622,-0.0358
304.06623,-0.0364
304.06624,-0.0359
304.06625,-0.0350
304.06626,-0.0346
304.06627,-0.0352
304.06628,-0.0355
304.0663,-0.0357
304.06631,-0.0352
304.06632,-0.0354
304.06633,-0.0356
304.06634,-0.0348
304.06635,-0.0352
304.06637,-0.0352
304.06638,-0.0341
304.06639,-0.0348
304.0664,-0.0367
304.06641,-0.0367
304.06642,-0.0357
304.06644,-0.0346
304.06645,-0.0359
304.06646,-0.0358
304.06647,-0.0349
304.06648,-0.0350
304.06649,-0.0352
304.0665,-0.0350
304.06652,-0.0355
304.06653,-0.0353
304.06654,-0.0351
304.06655,-0.0352
304.06656,-0.0355
304.06657,-0.0359
304.06659,-0.0351
304.0666,-0.0353
304.06661,-0.0361
304.06662,-0.0351
304.06663,-0.0351
304.06664,-0.0420
304.06666,-0.0442
304.06667,-0.0400
304.06668,-0.0370
304.06669,-0.0359
304.0667,-0.0363
304.06671,-0.0367
304.06672,-0.0363
304.06674,-0.0355
304.06675,-0.0352
304.06676,-0.0353
304.06677,-0.0358
304.06678,-0.0366
304.06679,-0.0358
304.06681,-0.0355
304.06682,-0.0355
304.06683,-0.0350
304.06684,-0.0352
304.06685,-0.0359
304.06686,-0.0356
304.06687,-0.0359
304.06689,-0.0359
304.0669,-0.0359
304.06691,-0.0350
304.06692,-0.0355
304.06693,-0.0358
304.06694,-0.0350
304.06696,-0.0347
304.06697,-0.0347
304.06698,-0.0350
304.06699,-0.0350
304.067,-0.0351
304.06701,-0.0356
304.06703,-0.0362
304.06704,-0.0358
304.06705,-0.0356
304.06706,-0.0356
304.06707,-0.0358
304.06708,-0.0358
304.06709,-0.0355
304.06711,-0.0356
304.06712,-0.0360
304.06713,-0.0351
304.06714,-0.0346
304.06715,-0.0346
304.06716,-0.0345
304.06718,-0.0342
304.06719,-0.0346
304.0672,-0.0348
304.06721,-0.0346
304.06722,-0.0344
304.06723,-0.0343
304.06725,-0.0348
304.06726,-0.0352
304.06727,-0.0353
304.06728,-0.0343
304.06729,-0.0338
304.0673,-0.0346
304.06731,-0.0343
304.06733,-0.0338
304.06734,-0.0341
304.06735,-0.0340
304.06736,-0.0341
304.06737,-0.0339
304.06738,-0.0340
304.0674,-0.0342
304.06741,-0.0339
304.06742,-0.0337
304.06743,-0.0343
304.06744,-0.0352
304.06745,-0.0349
304.06747,-0.0344
304.06748,-0.0341
304.06749,-0.0346
304.0675,-0.0352
304.06751,-0.0351
304.06752,-0.0349
304.06753,-0.0341
304.06755,-0.0343
304.06756,-0.0335
304.06757,-0.0340
304.06758,-0.0341
304.06759,-0.0346
304.0676,-0.0342
304.06762,-0.0342
304.06763,-0.0351
304.06764,-0.0345
304.06765,-0.0339
304.06766,-0.0347
304.06767,-0.0345
304.06769,-0.0342
304.0677,-0.0341
304.06771,-0.0343
304.06772,-0.0344
304.06773,-0.0348
304.06774,-0.0352
304.06775,-0.0349
304.06777,-0.0344
304.06778,-0.0348
304.06779,-0.0336
304.0678,-0.0332
304.06781,-0.0338
304.06782,-0.0354
304.06784,-0.0355
304.06785,-0.0343
304.06786,-0.0341
304.06787,-0.0336
304.06788,-0.0343
304.06789,-0.0348
304.06791,-0.0345
304.06792,-0.0337
304.06793,-0.0338
304.06794,-0.0335
304.06795,-0.0326
304.06796,-0.0341
304.06797,-0.0340
304.06799,-0.0339
304.068,-0.0336
304.06801,-0.0333
304.06802,-0.0338
304.06803,-0.0335
304.06804,-0.0338
304.06806,-0.0338
304.06807,-0.0340
304.06808,-0.0340
304.06809,-0.0341
304.0681,-0.0343
304.06811,-0.0343
304.06813,-0.0342
304.06814,-0.0336
304.06815,-0.0337
304.06816,-0.0338
304.06817,-0.0339
304.06818,-0.0346
304.06819,-0.0337
304.06821,-0.0332
304.06822,-0.0333
304.06823,-0.0329
304.06824,-0.0325
304.06825,-0.0329
304.06826,-0.0329
304.06828,-0.0334
304.06829,-0.0340
304.0683,-0.0335
304.06831,-0.0329
304.06832,-0.0332
304.06833,-0.0344
304.06834,-0.0344
304.06836,-0.0345
304.06837,-0.0330
304.06838,-0.0327
304.06839,-0.0334
304.0684,-0.0337
304.06841,-0.0334
304.06843,-0.0338
304.06844,-0.0331
304.06845,-0.0320
304.06846,-0.0324
304.06847,-0.0330
304.06848,-0.0333
304.0685,-0.0337
304.06851,-0.0334
304.06852,-0.0340
304.06853,-0.0332
304.06854,-0.0324
304.06855,-0.0327
304.06856,-0.0329
304.06858,-0.0331
304.06859,-0.0338
304.0686,-0.0348
304.06861,-0.0343
304.06862,-0.0333
304.06863,-0.0330
304.06865,-0.0323
304.06866,-0.0321
304.06867,-0.0326
304.06868,-0.0329
304.06869,-0.0331
304.0687,-0.0330
304.06872,-0.0333
304.06873,-0.0331
304.06874,-0.0329
304.06875,-0.0323
304.06876,-0.0321
304.06877,-0.0323
304.06878,-0.0325
304.0688,-0.0324
304.06881,-0.0322
304.06882,-0.0326
304.06883,-0.0324
304.06884,-0.0323
304.06885,-0.0326
304.06887,-0.0327
304.06888,-0.0322
304.06889,-0.0316
304.0689,-0.0330
304.06891,-0.0331
304.06892,-0.0333
304.06894,-0.0335
304.06895,-0.0335
304.06896,-0.0328
304.06897,-0.0326
304.06898,-0.0327
304.06899,-0.0326
304.069,-0.0320
304.06902,-0.0323
304.06903,-0.0325
304.06904,-0.0325
304.06905,-0.0323
304.06906,-0.0320
304.06907,-0.0316
304.06909,-0.0319
304.0691,-0.0324
304.06911,-0.0319
304.06912,-0.0321
304.06913,-0.0319
304.06914,-0.0317
304.06916,-0.0324
304.06917,-0.0322
304.06918,-0.0314
304.06919,-0.0322
304.0692,-0.0320
304.06921,-0.0317
304.06922,-0.0320
304.06924,-0.0320
304.06925,-0.0321
304.06926,-0.0324
304.06927,-0.0325
304.06928,-0.0327
304.06929,-0.0330
304.06931,-0.0327
304.06932,-0.0322
304.06933,-0.0320
304.06934,-0.0322
304.06935,-0.0312
304.06936,-0.0313
304.06938,-0.0317
304.06939,-0.0318
304.0694,-0.0316
304.06941,-0.0316
304.06942,-0.0318
304.06943,-0.0312
304.06944,-0.0310
304.06947,-0.0313
304.06948,-0.0311
304.06949,-0.0314
304.0695,-0.0328
304.06951,-0.0322
304.06953,-0.0316
304.06953,-0.0321
304.06954,-0.0324
304.06955,-0.0327
304.06956,-0.0325
304.06957,-0.0320
304.06958,-0.0311
304.06959,-0.0311
304.06961,-0.0323
304.06962,-0.0324
304.06963,-0.0319
304.06964,-0.0314
304.06966,-0.0313
304.06968,-0.0312
304.06969,-0.0310
304.0697,-0.0310
304.06971,-0.0316
304.06972,-0.0318
304.06973,-0.0314
304.06975,-0.0316
304.06976,-0.0308
304.06977,-0.0297
304.06977,-0.0305
304.06978,-0.0306
304.06979,-0.0312
304.0698,-0.0319
304.06981,-0.0317
304.06984,-0.0316
304.06985,-0.0311
304.06986,-0.0315
304.06987,-0.0319
304.06988,-0.0315
304.0699,-0.0314
304.06991,-0.0309
304.06992,-0.0307
304.06993,-0.0313
304.06994,-0.0304
304.06995,-0.0309
304.06997,-0.0313
304.06998,-0.0315
304.06999,-0.0314
304.07,-0.0316
304.07001,-0.0311
304.07002,-0.0309
304.07003,-0.0303
304.07005,-0.0298
304.07006,-0.0299
304.07007,-0.0303
304.07008,-0.0312
304.07009,-0.0307
304.0701,-0.0306
304.07012,-0.0310
304.07013,-0.0302
304.07014,-0.0312
304.07015,-0.0313
304.07016,-0.0305
304.07017,-0.0303
304.07019,-0.0309
304.0702,-0.0305
304.07021,-0.0304
304.07022,-0.0308
304.07023,-0.0312
304.07024,-0.0314
304.07025,-0.0313
304.07027,-0.0310
304.07028,-0.0308
304.07029,-0.0299
304.0703,-0.0299
304.07031,-0.0304
304.07032,-0.0299
304.07034,-0.0294
304.07035,-0.0294
304.07036,-0.0295
304.07037,-0.0298
304.07038,-0.0302
304.07039,-0.0297
304.07041,-0.0296
304.07042,-0.0304
304.07043,-0.0303
304.07044,-0.0301
304.07045,-0.0312
304.07046,-0.0315
304.07047,-0.0305
304.07049,-0.0297
304.0705,-0.0296
304.07051,-0.0297
304.07052,-0.0295
304.07053,-0.0296
304.07054,-0.0305
304.07056,-0.0308
304.07057,-0.0306
304.07058,-0.0301
304.07059,-0.0291
304.0706,-0.0288
304.07061,-0.0292
304.07063,-0.0290
304.07064,-0.0289
304.07065,-0.0292
304.07066,-0.0291
304.07067,-0.0291
304.07068,-0.0291
304.07069,-0.0283
304.07071,-0.0280
304.07072,-0.0276
304.07073,-0.0278
304.07074,-0.0274
304.07075,-0.0271
304.07076,-0.0280
304.07078,-0.0282
304.07079,-0.0278
304.0708,-0.0285
304.07081,-0.0283
304.07082,-0.0282
304.07083,-0.0278
304.07084,-0.0281
304.07086,-0.0286
304.07087,-0.0283
304.07088,-0.0280
304.07089,-0.0279
304.0709,-0.0279
304.07091,-0.0279
304.07093,-0.0282
304.07094,-0.0283
304.07095,-0.0285
304.07096,-0.0282
304.07097,-0.0280
304.07098,-0.0279
304.071,-0.0272
304.07101,-0.0268
304.07102,-0.0274
304.07103,-0.0281
304.07104,-0.0285
304.07105,-0.0283
304.07106,-0.0279
304.07108,-0.0277
304.07109,-0.0276
304.0711,-0.0280
304.07111,-0.0282
304.07112,-0.0275
304.07113,-0.0273
304.07115,-0.0274
304.07116,-0.0278
304.07117,-0.0276
304.07118,-0.0269
304.07119,-0.0267
304.0712,-0.0277
304.07122,-0.0276
304.07123,-0.0275
304.07124,-0.0281
304.07125,-0.0276
304.07126,-0.0275
304.07127,-0.0269
304.07128,-0.0262
304.0713,-0.0271
304.07131,-0.0276
304.07132,-0.0271
304.07133,-0.0270
304.07134,-0.0278
304.07135,-0.0277
304.07137,-0.0277
304.07138,-0.0274
304.07139,-0.0263
304.0714,-0.0272
304.07141,-0.0280
304.07142,-0.0280
304.07144,-0.0285
304.07145,-0.0281
304.07146,-0.0268
304.07147,-0.0277
304.07148,-0.0272
304.07149,-0.0263
304.0715,-0.0260
304.07152,-0.0264
304.07153,-0.0266
304.07154,-0.0270
304.07155,-0.0273
304.07156,-0.0270
304.07157,-0.0266
304.07159,-0.0267
304.0716,-0.0265
304.07161,-0.0255
304.07162,-0.0262
304.07163,-0.0263
304.07164,-0.0266
304.07166,-0.0268
304.07167,-0.0268
304.07168,-0.0275
304.07169,-0.0276
304.0717,-0.0271
304.07171,-0.0268
304.07172,-0.0264
304.07174,-0.0271
304.07175,-0.0268
304.07176,-0.0262
304.07177,-0.0265
304.07178,-0.0260
304.07179,-0.0254
304.07181,-0.0260
304.07182,-0.0263
304.07183,-0.0264
304.07184,-0.0268
304.07185,-0.0268
304.07186,-0.0269
304.07188,-0.0269
304.07189,-0.0260
304.0719,-0.0259
304.07191,-0.0257
304.07192,-0.0257
304.07193,-0.0261
304.07194,-0.0260
304.07196,-0.0260
304.07197,-0.0267
304.07198,-0.0264
304.07199,-0.0257
304.072,-0.0258
304.07201,-0.0256
304.07203,-0.0258
304.07204,-0.0265
304.07205,-0.0252
304.07206,-0.0255
304.07207,-0.0266
304.07208,-0.0266
304.07209,-0.0262
304.07211,-0.0261
304.07212,-0.0261
304.07213,-0.0262
304.07214,-0.0267
304.07215,-0.0261
304.07216,-0.0251
304.07218,-0.0262
304.07219,-0.0257
304.0722,-0.0255
304.07221,-0.0262
304.07222,-0.0255
304.07223,-0.0256
304.07225,-0.0256
304.07226,-0.0263
304.07227,-0.0264
304.07228,-0.0267
304.07229,-0.0267
304.0723,-0.0254
304.07231,-0.0251
304.07233,-0.0266
304.07234,-0.0265
304.07235,-0.0260
304.07236,-0.0258
304.07237,-0.0252
304.07238,-0.0263
304.0724,-0.0261
304.07241,-0.0257
304.07242,-0.0260
304.07243,-0.0259
304.07244,-0.0248
304.07245,-0.0249
304.07247,-0.0258
304.07248,-0.0261
304.07249,-0.0266
304.0725,-0.0263
304.07251,-0.0256
304.07252,-0.0259
304.07253,-0.0263
304.07255,-0.0260
304.07256,-0.0259
304.07257,-0.0263
304.07258,-0.0266
304.07259,-0.0255
304.0726,-0.0246
304.07262,-0.0248
304.07263,-0.0249
304.07264,-0.0255
304.07265,-0.0264
304.07266,-0.0253
304.07267,-0.0252
304.07269,-0.0257
304.0727,-0.0257
304.07271,-0.0258
304.07272,-0.0251
304.07273,-0.0243
304.07274,-0.0247
304.07275,-0.0254
304.07277,-0.0254
304.07278,-0.0253
304.07279,-0.0257
304.0728,-0.0256
304.07281,-0.0245
304.07282,-0.0242
304.07284,-0.0256
304.07285,-0.0259
304.07286,-0.0257
304.07287,-0.0260
304.07288,-0.0254
304.07289,-0.0254
304.07291,-0.0255
304.07292,-0.0252
304.07293,-0.0254
304.07294,-0.0255
304.07295,-0.0254
304.07296,-0.0258
304.07297,-0.0250
304.07299,-0.0250
304.073,-0.0251
304.07301,-0.0250
304.07302,-0.0248
304.07303,-0.0248
304.07304,-0.0254
304.07306,-0.0257
304.07307,-0.0256
304.07308,-0.0258
304.07309,-0.0258
304.0731,-0.0256
304.07311,-0.0255
304.07313,-0.0263
304.07314,-0.0260
304.07315,-0.0255
304.07316,-0.0251
304.07317,-0.0243
304.07318,-0.0247
304.07319,-0.0252
304.07321,-0.0247
304.07322,-0.0246
304.07323,-0.0245
304.07324,-0.0244
304.07325,-0.0244
304.07326,-0.0250
304.07328,-0.0256
304.07329,-0.0253
304.0733,-0.0250
304.07331,-0.0249
304.07332,-0.0243
304.07333,-0.0245
304.07334,-0.0256
304.07336,-0.0251
304.07337,-0.0248
304.07338,-0.0254
304.07339,-0.0249
304.0734,-0.0254
304.07341,-0.0251
304.07343,-0.0249
304.07344,-0.0253
304.07345,-0.0250
304.07346,-0.0251
304.07347,-0.0249
304.07348,-0.0251
304.0735,-0.0251
304.07351,-0.0245
304.07352,-0.0253
304.07353,-0.0254
304.07354,-0.0249
304.07355,-0.0251
304.07356,-0.0244
304.07358,-0.0249
304.07359,-0.0251
304.0736,-0.0244
304.07361,-0.0241
304.07362,-0.0248
304.07363,-0.0249
304.07365,-0.0250
304.07366,-0.0251
304.07367,-0.0255
304.07368,-0.0261
304.07369,-0.0253
304.0737,-0.0244
304.07372,-0.0243
304.07373,-0.0247
304.07374,-0.0241
304.07375,-0.0249
304.07376,-0.0258
304.07377,-0.0252
304.07378,-0.0252
304.0738,-0.0251
304.07381,-0.0244
304.07382,-0.0242
304.07383,-0.0239
304.07384,-0.0241
304.07385,-0.0244
304.07387,-0.0248
304.07388,-0.0252
304.07389,-0.0248
304.0739,-0.0243
304.07391,-0.0246
304.07392,-0.0252
304.07394,-0.0252
304.07395,-0.0249
304.07396,-0.0248
304.07397,-0.0250
304.07398,-0.0241
304.07399,-0.0247
304.074,-0.0251
304.07402,-0.0248
304.07403,-0.0252
304.07404,-0.0251
304.07405,-0.0241
304.07406,-0.0242
304.07407,-0.0240
304.07409,-0.0244
304.0741,-0.0252
304.07411,-0.0250
304.07412,-0.0240
304.07413,-0.0236
304.07414,-0.0238
304.07416,-0.0242
304.07417,-0.0239
304.07418,-0.0234
304.07419,-0.0239
304.0742,-0.0237
304.07421,-0.0238
304.07422,-0.0238
304.07424,-0.0237
304.07425,-0.0238
304.07426,-0.0241
304.07427,-0.0238
304.07428,-0.0241
304.07429,-0.0251
304.07431,-0.0244
304.07432,-0.0238
304.07433,-0.0232
304.07434,-0.0233
304.07435,-0.0236
304.07436,-0.0234
304.07437,-0.0243
304.07439,-0.0235
304.0744,-0.0234
304.07441,-0.0242
304.07442,-0.0242
304.07443,-0.0240
304.07444,-0.0238
304.07446,-0.0242
304.07447,-0.0236
304.07448,-0.0239
304.07449,-0.0243
304.0745,-0.0243
304.07451,-0.0245
304.07453,-0.0247
304.07454,-0.0242
304.07455,-0.0236
304.07456,-0.0242
304.07457,-0.0238
304.07458,-0.0237
304.07459,-0.0245
304.07461,-0.0242
304.07462,-0.0233
304.07463,-0.0234
304.07464,-0.0241
304.07465,-0.0236
304.07466,-0.0245
304.07468,-0.0250
304.07469,-0.0242
304.0747,-0.0234
304.07471,-0.0226
304.07472,-0.0232
304.07473,-0.0240
304.07475,-0.0242
304.07476,-0.0246
304.07477,-0.0247
304.07478,-0.0246
304.07479,-0.0243
304.0748,-0.0236
304.07481,-0.0237
304.07483,-0.0235
304.07484,-0.0236
304.07485,-0.0234
304.07486,-0.0232
304.07487,-0.0233
304.07488,-0.0238
304.0749,-0.0245
304.07491,-0.0238
304.07492,-0.0230
304.07493,-0.0235
304.07494,-0.0240
304.07495,-0.0243
304.07497,-0.0237
304.07498,-0.0238
304.07499,-0.0234
304.075,-0.0232
304.07501,-0.0225
304.07502,-0.0234
304.07503,-0.0247
304.07505,-0.0243
304.07506,-0.0236
304.07507,-0.0231
304.07508,-0.0234
304.07509,-0.0235
304.0751,-0.0236
304.07512,-0.0229
304.07513,-0.0228
304.07514,-0.0229
304.07515,-0.0229
304.07516,-0.0222
304.07517,-0.0230
304.07519,-0.0236
304.0752,-0.0226
304.07521,-0.0225
304.07522,-0.0225
304.07523,-0.0227
304.07524,-0.0236
304.07525,-0.0240
304.07527,-0.0237
304.07528,-0.0230
304.07529,-0.0225
304.0753,-0.0229
304.07531,-0.0229
304.07532,-0.0234
304.07534,-0.0236
304.07535,-0.0233
304.07536,-0.0226
304.07537,-0.0221
304.07538,-0.0233
304.07539,-0.0232
304.07541,-0.0232
304.07542,-0.0234
304.07543,-0.0231
304.07544,-0.0228
304.07545,-0.0231
304.07546,-0.0223
304.07547,-0.0224
304.07549,-0.0224
304.0755,-0.0218
304.07551,-0.0228
304.07552,-0.0229
304.07553,-0.0229
304.07554,-0.0224
304.07556,-0.0225
304.07557,-0.0229
304.07558,-0.0230
304.07559,-0.0224
304.0756,-0.0231
304.07561,-0.0225
304.07563,-0.0224
304.07564,-0.0222
304.07565,-0.0226
304.07566,-0.0224
304.07567,-0.0218
304.07568,-0.0220
304.07569,-0.0224
304.07571,-0.0227
304.07572,-0.0226
304.07573,-0.0223
304.07574,-0.0229
304.07575,-0.0235
304.07576,-0.0228
304.07578,-0.0227
304.07579,-0.0230
304.0758,-0.0228
304.07581,-0.0232
304.07582,-0.0228
304.07583,-0.0232
304.07584,-0.0224
304.07586,-0.0217
304.07587,-0.0221
304.07588,-0.0226
304.07589,-0.0224
304.0759,-0.0227
304.07591,-0.0234
304.07593,-0.0229
304.07594,-0.0226
304.07595,-0.0229
304.07596,-0.0225
304.07597,-0.0227
304.07598,-0.0226
304.076,-0.0225
304.07601,-0.0221
304.07602,-0.0223
304.07603,-0.0222
304.07604,-0.0221
304.07605,-0.0224
304.07606,-0.0227
304.07608,-0.0225
304.07609,-0.0225
304.0761,-0.0228
304.07611,-0.0230
304.07612,-0.0225
304.07613,-0.0226
304.07615,-0.0222
304.07616,-0.0217
304.07617,-0.0215
304.07618,-0.0219
304.07619,-0.0222
304.0762,-0.0221
304.07622,-0.0220
304.07623,-0.0217
304.07624,-0.0212
304.07625,-0.0211
304.07626,-0.0219
304.07627,-0.0223
304.07628,-0.0219
304.0763,-0.0224
304.07631,-0.0229
304.07632,-0.0233
304.07633,-0.0219
304.07634,-0.0215
304.07635,-0.0220
304.07637,-0.0217
304.07638,-0.0221
304.07639,-0.0216
304.0764,-0.0209
304.07641,-0.0208
304.07642,-0.0220
304.07644,-0.0218
304.07645,-0.0208
304.07646,-0.0211
304.07647,-0.0215
304.07648,-0.0210
304.07649,-0.0220
304.0765,-0.0221
304.07652,-0.0217
304.07653,-0.0218
304.07654,-0.0224
304.07655,-0.0233
304.07656,-0.0229
304.07657,-0.0220
304.07659,-0.0214
304.0766,-0.0218
304.07661,-0.0222
304.07662,-0.0227
304.07663,-0.0220
304.07664,-0.0220
304.07666,-0.0219
304.07667,-0.0218
304.07668,-0.0212
304.07669,-0.0210
304.0767,-0.0202
304.07671,-0.0203
304.07672,-0.0204
304.07674,-0.0205
304.07675,-0.0209
304.07676,-0.0215
304.07677,-0.0212
304.07678,-0.0209
304.07679,-0.0202
304.07681,-0.0201
304.07682,-0.0200
304.07683,-0.0209
304.07684,-0.0218
304.07685,-0.0220
304.07686,-0.0217
304.07688,-0.0210
304.07689,-0.0210
304.0769,-0.0214
304.07691,-0.0210
304.07692,-0.0211
304.07693,-0.0210
304.07694,-0.0215
304.07697,-0.0219
304.07697,-0.0217
304.07698,-0.0211
304.07699,-0.0208
304.077,-0.0206
304.07701,-0.0211
304.07703,-0.0208
304.07704,-0.0205
304.07705,-0.0210
304.07706,-0.0211
304.07707,-0.0207
304.07708,-0.0209
304.07709,-0.0211
304.07711,-0.0209
304.07712,-0.0213
304.07714,-0.0209
304.07715,-0.0201
304.07716,-0.0205
304.07718,-0.0215
304.07719,-0.0208
304.0772,-0.0214
304.07721,-0.0212
304.07721,-0.0204
304.07722,-0.0207
304.07723,-0.0210
304.07725,-0.0212
304.07726,-0.0209
304.07727,-0.0208
304.07728,-0.0207
304.07729,-0.0207
304.07731,-0.0209
304.07733,-0.0208
304.07734,-0.0203
304.07735,-0.0202
304.07736,-0.0205
304.07737,-0.0207
304.07738,-0.0204
304.0774,-0.0209
304.07741,-0.0213
304.07742,-0.0216
304.07743,-0.0204
304.07744,-0.0201
304.07745,-0.0210
304.07745,-0.0210
304.07747,-0.0210
304.07748,-0.0211
304.0775,-0.0206
304.07751,-0.0206
304.07752,-0.0212
304.07753,-0.0212
304.07755,-0.0210
304.07756,-0.0207
304.07757,-0.0210
304.07758,-0.0212
304.07759,-0.0212
304.0776,-0.0217
304.07762,-0.0213
304.07763,-0.0216
304.07764,-0.0217
304.07765,-0.0212
304.07766,-0.0219
304.07767,-0.0225
304.07769,-0.0215
304.0777,-0.0209
304.07771,-0.0215
304.07772,-0.0216
304.07773,-0.0215
304.07774,-0.0213
304.07775,-0.0212
304.07777,-0.0212
304.07778,-0.0210
304.07779,-0.0213
304.0778,-0.0214
304.07781,-0.0218
304.07782,-0.0217
304.07784,-0.0216
304.07785,-0.0216
304.07786,-0.0221
304.07787,-0.0210
304.07788,-0.0216
304.07789,-0.0223
304.07791,-0.0218
304.07792,-0.0217
304.07793,-0.0224
304.07794,-0.0219
304.07795,-0.0209
304.07796,-0.0209
304.07797,-0.0213
304.07799,-0.0212
304.078,-0.0209
304.07801,-0.0220
304.07802,-0.0219
304.07803,-0.0208
304.07804,-0.0203
304.07806,-0.0214
304.07807,-0.0216
304.07808,-0.0203
304.07809,-0.0199
304.0781,-0.0203
304.07811,-0.0215
304.07812,-0.0215
304.07814,-0.0210
304.07815,-0.0214
304.07816,-0.0218
304.07817,-0.0218
304.07818,-0.0217
304.07819,-0.0205
304.07821,-0.0200
304.07822,-0.0204
304.07823,-0.0208
304.07824,-0.0207
304.07825,-0.0211
304.07826,-0.0217
304.07828,-0.0210
304.07829,-0.0204
304.0783,-0.0202
304.07831,-0.0203
304.07832,-0.0207
304.07833,-0.0208
304.07834,-0.0212
304.07836,-0.0208
304.07837,-0.0214
304.07838,-0.0213
304.07839,-0.0207
304.0784,-0.0208
304.07841,-0.0207
304.07843,-0.0203
304.07844,-0.0202
304.07845,-0.0209
304.07846,-0.0207
304.07847,-0.0209
304.07848,-0.0203
304.0785,-0.0200
304.07851,-0.0197
304.07852,-0.0200
304.07853,-0.0201
304.07854,-0.0199
304.07855,-0.0203
304.07856,-0.0209
304.07858,-0.0206
304.07859,-0.0207
304.0786,-0.0208
304.07861,-0.0208
304.07862,-0.0208
304.07863,-0.0212
304.07865,-0.0211
304.07866,-0.0206
304.07867,-0.0205
304.07868,-0.0205
304.07869,-0.0208
304.0787,-0.0212
304.07872,-0.0208
304.07873,-0.0202
304.07874,-0.0205
304.07875,-0.0206
304.07876,-0.0209
304.07877,-0.0220
304.07878,-0.0217
304.0788,-0.0208
304.07881,-0.0205
304.07882,-0.0203
304.07883,-0.0212
304.07884,-0.0213
304.07885,-0.0208
304.07887,-0.0205
304.07888,-0.0203
304.07889,-0.0205
304.0789,-0.0206
304.07891,-0.0210
304.07892,-0.0213
304.07894,-0.0214
304.07895,-0.0214
304.07896,-0.0207
304.07897,-0.0206
304.07898,-0.0211
304.07899,-0.0210
304.079,-0.0205
304.07902,-0.0212
304.07903,-0.0219
304.07904,-0.0212
304.07905,-0.0210
304.07906,-0.0210
304.07907,-0.0208
304.07909,-0.0208
304.0791,-0.0205
304.07911,-0.0209
304.07912,-0.0197
304.07913,-0.0197
304.07914,-0.0205
304.07916,-0.0197
304.07917,-0.0198
304.07918,-0.0211
304.07919,-0.0215
304.0792,-0.0215
304.07921,-0.0215
304.07922,-0.0218
304.07924,-0.0212
304.07925,-0.0207
304.07926,-0.0205
304.07927,-0.0209
304.07928,-0.0209
304.07929,-0.0213
304.07931,-0.0203
304.07932,-0.0202
304.07933,-0.0211
304.07934,-0.0218
304.07935,-0.0210
304.07936,-0.0207
304.07938,-0.0205
304.07939,-0.0207
304.0794,-0.0205
304.07941,-0.0209
304.07942,-0.0208
304.07943,-0.0205
304.07944,-0.0201
304.07946,-0.0200
304.07947,-0.0208
304.07948,-0.0208
304.07949,-0.0204
304.0795,-0.0204
304.07951,-0.0212
304.07953,-0.0218
304.07954,-0.0217
304.07955,-0.0210
304.07956,-0.0205
304.07957,-0.0212
304.07958,-0.0208
304.07959,-0.0209
304.07961,-0.0211
304.07962,-0.0205
304.07963,-0.0205
304.07964,-0.0210
304.07965,-0.0208
304.07966,-0.0204
304.07968,-0.0208
304.07969,-0.0208
304.0797,-0.0203
304.07971,-0.0209
304.07972,-0.0209
304.07973,-0.0204
304.07975,-0.0202
304.07976,-0.0203
304.07977,-0.0206
304.07978,-0.0200
304.07979,-0.0197
304.0798,-0.0200
304.07981,-0.0195
304.07983,-0.0196
304.07984,-0.0203
304.07985,-0.0205
304.07986,-0.0208
304.07987,-0.0204
304.07988,-0.0203
304.0799,-0.0202
304.07991,-0.0198
304.07992,-0.0205
304.07993,-0.0206
304.07994,-0.0202
304.07995,-0.0201
304.07997,-0.0204
304.07998,-0.0209
304.07999,-0.0201
304.08,-0.0199
304.08001,-0.0198
304.08002,-0.0191
304.08003,-0.0188
304.08005,-0.0189
304.08006,-0.0195
304.08007,-0.0201
304.08008,-0.0208
304.08009,-0.0212
304.0801,-0.0205
304.08012,-0.0205
304.08013,-0.0208
304.08014,-0.0205
304.08015,-0.0197
304.08016,-0.0200
304.08017,-0.0197
304.08019,-0.0198
304.0802,-0.0201
304.08021,-0.0196
304.08022,-0.0198
304.08023,-0.0198
304.08024,-0.0187
304.08025,-0.0194
304.08027,-0.0199
304.08028,-0.0192
304.08029,-0.0192
304.0803,-0.0196
304.08031,-0.0198
304.08032,-0.0201
304.08034,-0.0207
304.08035,-0.0210
304.08036,-0.0208
304.08037,-0.0208
304.08038,-0.0200
304.08039,-0.0198
304.08041,-0.0206
304.08042,-0.0211
304.08043,-0.0204
304.08044,-0.0201
304.08045,-0.0203
304.08046,-0.0198
304.08047,-0.0200
304.08049,-0.0199
304.0805,-0.0209
304.08051,-0.0204
304.08052,-0.0198
304.08053,-0.0205
304.08054,-0.0206
304.08056,-0.0198
304.08057,-0.0194
304.08058,-0.0198
304.08059,-0.0197
304.0806,-0.0193
304.08061,-0.0192
304.08062,-0.0193
304.08064,-0.0200
304.08065,-0.0201
304.08066,-0.0205
304.08067,-0.0204
304.08068,-0.0202
304.08069,-0.0196
304.08071,-0.0188
304.08072,-0.0184
304.08073,-0.0184
304.08074,-0.0190
304.08075,-0.0200
304.08076,-0.0202
304.08078,-0.0201
304.08079,-0.0197
304.0808,-0.0200
304.08081,-0.0204
304.08082,-0.0200
304.08083,-0.0204
304.08084,-0.0201
304.08086,-0.0194
304.08087,-0.0191
304.08088,-0.0191
304.08089,-0.0195
304.0809,-0.0196
304.08091,-0.0194
304.08093,-0.0199
304.08094,-0.0198
304.08095,-0.0188
304.08096,-0.0191
304.08097,-0.0199
304.08098,-0.0198
304.081,-0.0200
304.08101,-0.0191
304.08102,-0.0184
304.08103,-0.0190
304.08104,-0.0196
304.08105,-0.0203
304.08106,-0.0206
304.08108,-0.0199
304.08109,-0.0190
304.0811,-0.0191
304.08111,-0.0195
304.08112,-0.0196
304.08113,-0.0198
304.08115,-0.0193
304.08116,-0.0188
304.08117,-0.0190
304.08118,-0.0193
304.08119,-0.0190
304.0812,-0.0188
304.08122,-0.0189
304.08123,-0.0187
304.08124,-0.0187
304.08125,-0.0190
304.08126,-0.0191
304.08127,-0.0194
304.08128,-0.0194
304.0813,-0.0195
304.08131,-0.0198
304.08132,-0.0195
304.08133,-0.0199
304.08134,-0.0197
304.08135,-0.0196
304.08137,-0.0194
304.08138,-0.0192
304.08139,-0.0192
304.0814,-0.0185
304.08141,-0.0188
304.08142,-0.0192
304.08144,-0.0193
304.08145,-0.0201
304.08146,-0.0199
304.08147,-0.0199
304.08148,-0.0201
304.08149,-0.0202
304.0815,-0.0201
304.08152,-0.0201
304.08153,-0.0200
304.08154,-0.0195
304.08155,-0.0191
304.08156,-0.0190
304.08157,-0.0193
304.08159,-0.0193
304.0816,-0.0187
304.08161,-0.0186
304.08162,-0.0192
304.08163,-0.0186
304.08164,-0.0180
304.08166,-0.0183
304.08167,-0.0185
304.08168,-0.0184
304.08169,-0.0184
304.0817,-0.0180
304.08171,-0.0183
304.08172,-0.0187
304.08174,-0.0194
304.08175,-0.0191
304.08176,-0.0187
304.08177,-0.0196
304.08178,-0.0196
304.08179,-0.0198
304.08181,-0.0198
304.08182,-0.0194
304.08183,-0.0188
304.08184,-0.0189
304.08185,-0.0191
304.08186,-0.0191
304.08188,-0.0196
304.08189,-0.0203
304.0819,-0.0199
304.08191,-0.0190
304.08192,-0.0190
304.08193,-0.0194
304.08194,-0.0198
304.08196,-0.0198
304.08197,-0.0198
304.08198,-0.0198
304.08199,-0.0195
304.082,-0.0193
304.08201,-0.0190
304.08203,-0.0186
304.08204,-0.0190
304.08205,-0.0190
304.08206,-0.0184
304.08207,-0.0187
304.08208,-0.0187
304.08209,-0.0189
304.08211,-0.0198
304.08212,-0.0198
304.08213,-0.0189
304.08214,-0.0187
304.08215,-0.0187
304.08216,-0.0189
304.08218,-0.0198
304.08219,-0.0191
304.0822,-0.0186
304.08221,-0.0196
304.08222,-0.0194
304.08223,-0.0193
304.08225,-0.0198
304.08226,-0.0192
304.08227,-0.0186
304.08228,-0.0188
304.08229,-0.0193
304.0823,-0.0188
304.08231,-0.0188
304.08233,-0.0190
304.08234,-0.0188
304.08235,-0.0183
304.08236,-0.0175
304.08237,-0.0184
304.08238,-0.0195
304.0824,-0.0200
304.08241,-0.0196
304.08242,-0.0194
304.08243,-0.0182
304.08244,-0.0187
304.08245,-0.0187
304.08247,-0.0182
304.08248,-0.0191
304.08249,-0.0192
304.0825,-0.0193
304.08251,-0.0198
304.08252,-0.0192
304.08253,-0.0182
304.08255,-0.0180
304.08256,-0.0182
304.08257,-0.0189
304.08258,-0.0191
304.08259,-0.0194
304.0826,-0.0187
304.08262,-0.0186
304.08263,-0.0193
304.08264,-0.0192
304.08265,-0.0187
304.08266,-0.0186
304.08267,-0.0185
304.08269,-0.0186
304.0827,-0.0183
304.08271,-0.0192
304.08272,-0.0186
304.08273,-0.0182
304.08274,-0.0192
304.08275,-0.0192
304.08277,-0.0185
304.08278,-0.0194
304.08279,-0.0203
304.0828,-0.0196
304.08281,-0.0192
304.08282,-0.0189
304.08284,-0.0182
304.08285,-0.0181
304.08286,-0.0187
304.08287,-0.0188
304.08288,-0.0191
304.08289,-0.0194
304.08291,-0.0194
304.08292,-0.0193
304.08293,-0.0180
304.08294,-0.0181
304.08295,-0.0188
304.08296,-0.0187
304.08297,-0.0187
304.08299,-0.0185
304.083,-0.0185
304.08301,-0.0186
304.08302,-0.0186
304.08303,-0.0194
304.08304,-0.0192
304.08306,-0.0190
304.08307,-0.0190
304.08308,-0.0187
304.08309,-0.0180
304.0831,-0.0184
304.08311,-0.0184
304.08312,-0.0188
304.08314,-0.0192
304.08315,-0.0193
304.08316,-0.0192
304.08317,-0.0193
304.08318,-0.0192
304.08319,-0.0188
304.08321,-0.0187
304.08322,-0.0185
304.08323,-0.0190
304.08324,-0.0195
304.08325,-0.0186
304.08326,-0.0183
304.08328,-0.0179
304.08329,-0.0174
304.0833,-0.0180
304.08331,-0.0186
304.08332,-0.0184
304.08333,-0.0190
304.08334,-0.0192
304.08336,-0.0190
304.08337,-0.0184
304.08338,-0.0186
304.08339,-0.0183
304.0834,-0.0181
304.08341,-0.0180
304.08343,-0.0181
304.08344,-0.0188
304.08345,-0.0191
304.08346,-0.0191
304.08347,-0.0188
304.08348,-0.0184
304.0835,-0.0182
304.08351,-0.0181
304.08352,-0.0184
304.08353,-0.0186
304.08354,-0.0189
304.08355,-0.0185
304.08356,-0.0191
304.08358,-0.0194
304.08359,-0.0190
304.0836,-0.0183
304.08361,-0.0177
304.08362,-0.0185
304.08363,-0.0181
304.08365,-0.0176
304.08366,-0.0171
304.08367,-0.0171
304.08368,-0.0175
304.08369,-0.0184
304.0837,-0.0185
304.08372,-0.0179
304.08373,-0.0180
304.08374,-0.0182
304.08375,-0.0180
304.08376,-0.0182
304.08377,-0.0183
304.08378,-0.0183
304.0838,-0.0181
304.08381,-0.0178
304.08382,-0.0183
304.08383,-0.0183
304.08384,-0.0182
304.08385,-0.0187
304.08387,-0.0188
304.08388,-0.0184
304.08389,-0.0180
304.0839,-0.0176
304.08391,-0.0177
304.08392,-0.0176
304.08394,-0.0180
304.08395,-0.0180
304.08396,-0.0174
304.08397,-0.0179
304.08398,-0.0182
304.08399,-0.0180
304.084,-0.0182
304.08402,-0.0177
304.08403,-0.0178
304.08404,-0.0187
304.08405,-0.0189
304.08406,-0.0190
304.08407,-0.0183
304.08409,-0.0183
304.0841,-0.0185
304.08411,-0.0193
304.08412,-0.0195
304.08413,-0.0195
304.08414,-0.0193
304.08416,-0.0183
304.08417,-0.0177
304.08418,-0.0183
304.08419,-0.0179
304.0842,-0.0173
304.08421,-0.0175
304.08422,-0.0177
304.08424,-0.0180
304.08425,-0.0183
304.08426,-0.0181
304.08427,-0.0180
304.08428,-0.0178
304.08429,-0.0177
304.08431,-0.0179
304.08432,-0.0186
304.08433,-0.0182
304.08434,-0.0175
304.08435,-0.0181
304.08436,-0.0186
304.08437,-0.0184
304.08439,-0.0179
304.0844,-0.0181
304.08441,-0.0182
304.08442,-0.0186
304.08443,-0.0185
304.08444,-0.0184
304.08446,-0.0184
304.08447,-0.0184
304.08448,-0.0193
304.08449,-0.0189
304.0845,-0.0183
304.08451,-0.0182
304.08453,-0.0182
304.08454,-0.0180
304.08455,-0.0178
304.08456,-0.0182
304.08457,-0.0184
304.08458,-0.0178
304.08459,-0.0173
304.08461,-0.0181
304.08462,-0.0187
304.08463,-0.0185
304.08464,-0.0181
304.08465,-0.0178
304.08468,-0.0174
304.08469,-0.0179
304.0847,-0.0183
304.08471,-0.0174
304.08472,-0.0178
304.08473,-0.0179
304.08473,-0.0182
304.08475,-0.0184
304.08476,-0.0177
304.08477,-0.0184
304.08478,-0.0181
304.08479,-0.0177
304.0848,-0.0171
304.08481,-0.0169
304.08483,-0.0172
304.08484,-0.0174
304.08486,-0.0180
304.08487,-0.0176
304.08488,-0.0171
304.0849,-0.0173
304.08491,-0.0170
304.08492,-0.0169
304.08493,-0.0176
304.08494,-0.0185
304.08495,-0.0188
304.08497,-0.0184
304.08498,-0.0178
304.08498,-0.0177
304.08499,-0.0178
304.085,-0.0171
304.08501,-0.0164
304.08502,-0.0170
304.08505,-0.0178
304.08506,-0.0180
304.08507,-0.0178
304.08508,-0.0178
304.08509,-0.0173
304.0851,-0.0182
304.08512,-0.0181
304.08513,-0.0183
304.08514,-0.0179
304.08515,-0.0184
304.08516,-0.0179
304.08517,-0.0162
304.08519,-0.0164
304.0852,-0.0168
304.08521,-0.0167
304.08522,-0.0168
304.08523,-0.0164
304.08524,-0.0176
304.08525,-0.0181
304.08527,-0.0176
304.08528,-0.0171
304.08529,-0.0173
304.0853,-0.0180
304.08531,-0.0176
304.08532,-0.0172
304.08534,-0.0183
304.08535,-0.0178
304.08536,-0.0169
304.08537,-0.0167
304.08538,-0.0173
304.08539,-0.0169
304.08541,-0.0170
304.08542,-0.0175
304.08543,-0.0175
304.08544,-0.0181
304.08545,-0.0171
304.08546,-0.0171
304.08547,-0.0175
304.08549,-0.0171
304.0855,-0.0169
304.08551,-0.0167
304.08552,-0.0173
304.08553,-0.0172
304.08554,-0.0171
304.08556,-0.0177
304.08557,-0.0176
304.08558,-0.0170
304.08559,-0.0167
304.0856,-0.0164
304.08561,-0.0179
304.08562,-0.0177
304.08564,-0.0167
304.08565,-0.0178
304.08566,-0.0174
304.08567,-0.0175
304.08568,-0.0174
304.08569,-0.0176
304.08571,-0.0171
304.08572,-0.0169
304.08573,-0.0166
304.08574,-0.0163
304.08575,-0.0170
304.08576,-0.0172
304.08578,-0.0172
304.08579,-0.0167
304.0858,-0.0166
304.08581,-0.0166
304.08582,-0.0172
304.08583,-0.0169
304.08584,-0.0156
304.08586,-0.0163
304.08587,-0.0167
304.08588,-0.0168
304.08589,-0.0169
304.0859,-0.0179
304.08591,-0.0181
304.08593,-0.0181
304.08594,-0.0183
304.08595,-0.0177
304.08596,-0.0180
304.08597,-0.0180
304.08598,-0.0178
304.086,-0.0177
304.08601,-0.0171
304.08602,-0.0177
304.08603,-0.0181
304.08604,-0.0177
304.08605,-0.0170
304.08606,-0.0174
304.08608,-0.0173
304.08609,-0.0181
304.0861,-0.0176
304.08611,-0.0174
304.08612,-0.0174
304.08613,-0.0171
304.08615,-0.0165
304.08616,-0.0169
304.08617,-0.0171
304.08618,-0.0170
304.08619,-0.0166
304.0862,-0.0171
304.08622,-0.0173
304.08623,-0.0178
304.08624,-0.0171
304.08625,-0.0167
304.08626,-0.0165
304.08627,-0.0161
304.08628,-0.0171
304.0863,-0.0174
304.08631,-0.0165
304.08632,-0.0167
304.08633,-0.0166
304.08634,-0.0162
304.08635,-0.0169
304.08637,-0.0176
304.08638,-0.0172
304.08639,-0.0169
304.0864,-0.0177
304.08641,-0.0171
304.08642,-0.0162
304.08644,-0.0169
304.08645,-0.0167
304.08646,-0.0164
304.08647,-0.0171
304.08648,-0.0175
304.08649,-0.0207
304.0865,-0.0241
304.08652,-0.0229
304.08653,-0.0215
304.08654,-0.0214
304.08655,-0.0213
304.08656,-0.0207
304.08657,-0.0201
304.08659,-0.0204
304.0866,-0.0207
304.08661,-0.0201
304.08662,-0.0203
304.08663,-0.0209
304.08664,-0.0205
304.08666,-0.0213
304.08667,-0.0215
304.08668,-0.0206
304.08669,-0.0203
304.0867,-0.0200
304.08671,-0.0206
304.08672,-0.0208
304.08674,-0.0205
304.08675,-0.0197
304.08676,-0.0201
304.08677,-0.0204
304.08678,-0.0199
304.08679,-0.0194
304.08681,-0.0191
304.08682,-0.0189
304.08683,-0.0193
304.08684,-0.0201
304.08685,-0.0200
304.08686,-0.0192
304.08687,-0.0186
304.08689,-0.0185
304.0869,-0.0186
304.08691,-0.0189
304.08692,-0.0195
304.08693,-0.0192
304.08694,-0.0191
304.08696,-0.0185
304.08697,-0.0176
304.08698,-0.0186
304.08699,-0.0187
304.087,-0.0183
304.08701,-0.0185
304.08703,-0.0190
304.08704,-0.0181
304.08705,-0.0183
304.08706,-0.0183
304.08707,-0.0183
304.08708,-0.0185
304.08709,-0.0177
304.08711,-0.0181
304.08712,-0.0175
304.08713,-0.0179
304.08714,-0.0183
304.08715,-0.0181
304.08716,-0.0185
304.08718,-0.0187
304.08719,-0.0184
304.0872,-0.0172
304.08721,-0.0171
304.08722,-0.0176
304.08723,-0.0169
304.08725,-0.0179
304.08726,-0.0182
304.08727,-0.0175
304.08728,-0.0171
304.08729,-0.0170
304.0873,-0.0173
304.08731,-0.0176
304.08733,-0.0180
304.08734,-0.0176
304.08735,-0.0177
304.08736,-0.0172
304.08737,-0.0173
304.08738,-0.0178
304.0874,-0.0173
304.08741,-0.0171
304.08742,-0.0172
304.08743,-0.0175
304.08744,-0.0179
304.08745,-0.0180
304.08747,-0.0175
304.08748,-0.0172
304.08749,-0.0172
304.0875,-0.0167
304.08751,-0.0172
304.08752,-0.0179
304.08753,-0.0173
304.08755,-0.0171
304.08756,-0.0173
304.08757,-0.0178
304.08758,-0.0182
304.08759,-0.0170
304.0876,-0.0165
304.08762,-0.0166
304.08763,-0.0173
304.08764,-0.0169
304.08765,-0.0162
304.08766,-0.0170
304.08767,-0.0178
304.08769,-0.0174
304.0877,-0.0177
304.08771,-0.0178
304.08772,-0.0168
304.08773,-0.0158
304.08774,-0.0168
304.08775,-0.0175
304.08777,-0.0173
304.08778,-0.0174
304.08779,-0.0174
304.0878,-0.0175
304.08781,-0.0174
304.08782,-0.0174
304.08784,-0.0170
304.08785,-0.0169
304.08786,-0.0168
304.08787,-0.0173
304.08788,-0.0180
304.08789,-0.0174
304.08791,-0.0174
304.08792,-0.0182
304.08793,-0.0172
304.08794,-0.0164
304.08795,-0.0176
304.08796,-0.0176
304.08797,-0.0173
304.08799,-0.0174
304.088,-0.0175
304.08801,-0.0171
304.08802,-0.0177
304.08803,-0.0178
304.08804,-0.0170
304.08806,-0.0172
304.08807,-0.0173
304.08808,-0.0166
304.08809,-0.0165
304.0881,-0.0174
304.08811,-0.0180
304.08812,-0.0178
304.08814,-0.0177
304.08815,-0.0171
304.08816,-0.0170
304.08817,-0.0178
304.08818,-0.0176
304.08819,-0.0167
304.08821,-0.0171
304.08822,-0.0167
304.08823,-0.0166
304.08824,-0.0169
304.08825,-0.0172
304.08826,-0.0175
304.08828,-0.0173
304.08829,-0.0173
304.0883,-0.0168
304.08831,-0.0169
304.08832,-0.0169
304.08833,-0.0157
304.08834,-0.0157
304.08836,-0.0165
304.08837,-0.0160
304.08838,-0.0164
304.08839,-0.0170
304.0884,-0.0167
304.08841,-0.0168
304.08843,-0.0168
304.08844,-0.0172
304.08845,-0.0172
304.08846,-0.0172
304.08847,-0.0165
304.08848,-0.0155
304.0885,-0.0159
304.08851,-0.0163
304.08852,-0.0168
304.08853,-0.0171
304.08854,-0.0161
304.08855,-0.0162
304.08856,-0.0162
304.08858,-0.0164
304.08859,-0.0165
304.0886,-0.0165
304.08861,-0.0167
304.08862,-0.0168
304.08863,-0.0162
304.08865,-0.0157
304.08866,-0.0166
304.08867,-0.0179
304.08868,-0.0173
304.08869,-0.0168
304.0887,-0.0169
304.08872,-0.0161
304.08873,-0.0157
304.08874,-0.0161
304.08875,-0.0164
304.08876,-0.0156
304.08877,-0.0158
304.08878,-0.0162
304.0888,-0.0164
304.08881,-0.0173
304.08882,-0.0176
304.08883,-0.0176
304.08884,-0.0165
304.08885,-0.0165
304.08887,-0.0168
304.08888,-0.0161
304.08889,-0.0160
304.0889,-0.0162
304.08891,-0.0165
304.08892,-0.0165
304.08894,-0.0161
304.08895,-0.0167
304.08896,-0.0170
304.08897,-0.0169
304.08898,-0.0170
304.08899,-0.0167
304.089,-0.0169
304.08902,-0.0166
304.08903,-0.0160
304.08904,-0.0162
304.08905,-0.0175
304.08906,-0.0169
304.08907,-0.0160
304.08909,-0.0158
304.0891,-0.0161
304.08911,-0.0165
304.08912,-0.0163
304.08913,-0.0163
304.08914,-0.0160
304.08916,-0.0155
304.08917,-0.0153
304.08918,-0.0150
304.08919,-0.0161
304.0892,-0.0172
304.08921,-0.0165
304.08922,-0.0156
304.08924,-0.0152
304.08925,-0.0156
304.08926,-0.0153
304.08927,-0.0152
304.08928,-0.0158
304.08929,-0.0159
304.08931,-0.0157
304.08932,-0.0160
304.08933,-0.0166
304.08934,-0.0170
304.08935,-0.0177
304.08936,-0.0174
304.08937,-0.0156
304.08939,-0.0153
304.0894,-0.0162
304.08941,-0.0168
304.08942,-0.0162
304.08943,-0.0161
304.08944,-0.0157
304.08946,-0.0157
304.08947,-0.0155
304.08948,-0.0160
304.08949,-0.0160
304.0895,-0.0166
304.08951,-0.0164
304.08953,-0.0157
304.08954,-0.0159
304.08955,-0.0162
304.08956,-0.0163
304.08957,-0.0157
304.08958,-0.0157
304.08959,-0.0157
304.08961,-0.0161
304.08962,-0.0162
304.08963,-0.0157
304.08964,-0.0158
304.08965,-0.0167
304.08966,-0.0173
304.08968,-0.0173
304.08969,-0.0163
304.0897,-0.0167
304.08971,-0.0169
304.08972,-0.0165
304.08973,-0.0158
304.08975,-0.0163
304.08976,-0.0166
304.08977,-0.0164
304.08978,-0.0165
304.08979,-0.0169
304.0898,-0.0174
304.08981,-0.0163
304.08983,-0.0157
304.08984,-0.0152
304.08985,-0.0152
304.08986,-0.0158
304.08987,-0.0165
304.08988,-0.0168
304.0899,-0.0160
304.08991,-0.0161
304.08992,-0.0162
304.08993,-0.0163
304.08994,-0.0157
304.08995,-0.0158
304.08997,-0.0158
304.08998,-0.0156
304.08999,-0.0150
304.09,-0.0152
304.09001,-0.0156
304.09002,-0.0162
304.09003,-0.0160
304.09005,-0.0157
304.09006,-0.0163
304.09007,-0.0160
304.09008,-0.0159
304.09009,-0.0163
304.0901,-0.0158
304.09012,-0.0151
304.09013,-0.0157
304.09014,-0.0158
304.09015,-0.0154
304.09016,-0.0157
304.09017,-0.0156
304.09019,-0.0152
304.0902,-0.0157
304.09021,-0.0152
304.09022,-0.0150
304.09023,-0.0162
304.09024,-0.0168
304.09025,-0.0161
304.09027,-0.0154
304.09028,-0.0155
304.09029,-0.0153
304.0903,-0.0155
304.09031,-0.0158
304.09032,-0.0158
304.09034,-0.0159
304.09035,-0.0159
304.09036,-0.0156
304.09037,-0.0155
304.09038,-0.0148
304.09039,-0.0149
304.09041,-0.0155
304.09042,-0.0156
304.09043,-0.0154
304.09044,-0.0152
304.09045,-0.0148
304.09046,-0.0147
304.09047,-0.0149
304.09049,-0.0157
304.0905,-0.0161
304.09051,-0.0158
304.09052,-0.0156
304.09053,-0.0160
304.09054,-0.0159
304.09056,-0.0147
304.09057,-0.0144
304.09058,-0.0152
304.09059,-0.0151
304.0906,-0.0155
304.09061,-0.0162
304.09062,-0.0156
304.09064,-0.0152
304.09065,-0.0144
304.09066,-0.0143
304.09067,-0.0149
304.09068,-0.0148
304.09069,-0.0146
304.09071,-0.0143
304.09072,-0.0152
304.09073,-0.0149
304.09074,-0.0154
304.09075,-0.0154
304.09076,-0.0152
304.09078,-0.0158
304.09079,-0.0158
304.0908,-0.0157
304.09081,-0.0154
304.09082,-0.0156
304.09083,-0.0154
304.09084,-0.0152
304.09086,-0.0155
304.09087,-0.0159
304.09088,-0.0160
304.09089,-0.0157
304.0909,-0.0153
304.09091,-0.0151
304.09093,-0.0154
304.09094,-0.0153
304.09095,-0.0152
304.09096,-0.0147
304.09097,-0.0148
304.09098,-0.0156
304.091,-0.0159
304.09101,-0.0155
304.09102,-0.0155
304.09103,-0.0162
304.09104,-0.0163
304.09105,-0.0158
304.09106,-0.0148
304.09108,-0.0150
304.09109,-0.0144
304.0911,-0.0141
304.09111,-0.0146
304.09112,-0.0151
304.09113,-0.0153
304.09115,-0.0157
304.09116,-0.0165
304.09117,-0.0155
304.09118,-0.0154
304.09119,-0.0152
304.0912,-0.0149
304.09122,-0.0154
304.09123,-0.0154
304.09124,-0.0151
304.09125,-0.0151
304.09126,-0.0148
304.09127,-0.0155
304.09128,-0.0150
304.0913,-0.0154
304.09131,-0.0156
304.09132,-0.0151
304.09133,-0.0148
304.09134,-0.0145
304.09135,-0.0145
304.09137,-0.0148
304.09138,-0.0152
304.09139,-0.0153
304.0914,-0.0148
304.09141,-0.0154
304.09142,-0.0152
304.09144,-0.0147
304.09145,-0.0144
304.09146,-0.0144
304.09147,-0.0143
304.09148,-0.0150
304.09149,-0.0156
304.0915,-0.0153
304.09152,-0.0147
304.09153,-0.0150
304.09154,-0.0156
304.09155,-0.0152
304.09156,-0.0147
304.09157,-0.0153
304.09159,-0.0146
304.0916,-0.0148
304.09161,-0.0148
304.09162,-0.0147
304.09163,-0.0150
304.09164,-0.0156
304.09166,-0.0158
304.09167,-0.0148
304.09168,-0.0147
304.09169,-0.0148
304.0917,-0.0149
304.09171,-0.0161
304.09172,-0.0163
304.09174,-0.0154
304.09175,-0.0156
304.09176,-0.0158
304.09177,-0.0160
304.09178,-0.0149
304.09179,-0.0146
304.09181,-0.0146
304.09182,-0.0143
304.09183,-0.0146
304.09184,-0.0159
304.09185,-0.0154
304.09186,-0.0155
304.09187,-0.0156
304.09189,-0.0150
304.0919,-0.0144
304.09191,-0.0146
304.09192,-0.0148
304.09193,-0.0148
304.09194,-0.0145
304.09196,-0.0147
304.09197,-0.0149
304.09198,-0.0147
304.09199,-0.0154
304.092,-0.0154
304.09201,-0.0151
304.09203,-0.0149
304.09204,-0.0151
304.09205,-0.0147
304.09206,-0.0144
304.09207,-0.0143
304.09208,-0.0145
304.09209,-0.0148
304.09211,-0.0142
304.09212,-0.0147
304.09213,-0.0157
304.09214,-0.0151
304.09215,-0.0137
304.09216,-0.0135
304.09218,-0.0146
304.09219,-0.0146
304.0922,-0.0147
304.09222,-0.0154
304.09223,-0.0154
304.09225,-0.0150
304.09226,-0.0142
304.09227,-0.0146
304.09228,-0.0160
304.09228,-0.0148
304.09229,-0.0143
304.0923,-0.0153
304.09231,-0.0142
304.09233,-0.0138
304.09234,-0.0143
304.09235,-0.0147
304.09236,-0.0146
304.09237,-0.0145
304.09238,-0.0139
304.09241,-0.0142
304.09242,-0.0147
304.09243,-0.0142
304.09244,-0.0142
304.09245,-0.0140
304.09247,-0.0143
304.09248,-0.0145
304.09249,-0.0143
304.0925,-0.0140
304.09251,-0.0142
304.09252,-0.0149
304.09252,-0.0150
304.09253,-0.0150
304.09255,-0.0154
304.09256,-0.0154
304.09257,-0.0146
304.09258,-0.0150
304.0926,-0.0148
304.09262,-0.0142
304.09263,-0.0147
304.09264,-0.0154
304.09265,-0.0159
304.09266,-0.0154
304.09267,-0.0151
304.09269,-0.0156
304.0927,-0.0154
304.09271,-0.0157
304.09272,-0.0153
304.09273,-0.0144
304.09274,-0.0147
304.09275,-0.0147
304.09277,-0.0140
304.09278,-0.0144
304.09279,-0.0144
304.0928,-0.0149
304.09281,-0.0156
304.09282,-0.0147
304.09284,-0.0137
304.09285,-0.0148
304.09286,-0.0154
304.09287,-0.0158
304.09288,-0.0152
304.09289,-0.0148
304.09291,-0.0149
304.09292,-0.0148
304.09293,-0.0158
304.09294,-0.0153
304.09295,-0.0148
304.09296,-0.0147
304.09297,-0.0144
304.09299,-0.0146
304.093,-0.0152
304.09301,-0.0156
304.09302,-0.0158
304.09303,-0.0160
304.09304,-0.0151
304.09306,-0.0143
304.09307,-0.0146
304.09308,-0.0154
304.09309,-0.0150
304.0931,-0.0152
304.09311,-0.0159
304.09312,-0.0157
304.09314,-0.0154
304.09315,-0.0149
304.09316,-0.0157
304.09317,-0.0156
304.09318,-0.0145
304.09319,-0.0144
304.09321,-0.0146
304.09322,-0.0146
304.09323,-0.0152
304.09324,-0.0153
304.09325,-0.0143
304.09326,-0.0148
304.09328,-0.0151
304.09329,-0.0148
304.0933,-0.0155
304.09331,-0.0148
304.09332,-0.0140
304.09333,-0.0147
304.09334,-0.0141
304.09336,-0.0143
304.09337,-0.0153
304.09338,-0.0154
304.09339,-0.0153
304.0934,-0.0154
304.09341,-0.0154
304.09343,-0.0152
304.09344,-0.0147
304.09345,-0.0144
304.09346,-0.0140
304.09347,-0.0140
304.09348,-0.0140
304.0935,-0.0148
304.09351,-0.0151
304.09352,-0.0149
304.09353,-0.0149
304.09354,-0.0150
304.09355,-0.0150
304.09356,-0.0153
304.09358,-0.0145
304.09359,-0.0143
304.0936,-0.0147
304.09361,-0.0146
304.09362,-0.0144
304.09363,-0.0143
304.09365,-0.0137
304.09366,-0.0143
304.09367,-0.0150
304.09368,-0.0150
304.09369,-0.0152
304.0937,-0.0150
304.09372,-0.0146
304.09373,-0.0152
304.09374,-0.0155
304.09375,-0.0144
304.09376,-0.0145
304.09377,-0.0145
304.09378,-0.0144
304.0938,-0.0148
304.09381,-0.0148
304.09382,-0.0143
304.09383,-0.0148
304.09384,-0.0150
304.09385,-0.0146
304.09387,-0.0147
304.09388,-0.0143
304.09389,-0.0135
304.0939,-0.0145
304.09391,-0.0153
304.09392,-0.0158
304.09394,-0.0152
304.09395,-0.0137
304.09396,-0.0137
304.09397,-0.0148
304.09398,-0.0148
304.09399,-0.0140
304.094,-0.0138
304.09402,-0.0145
304.09403,-0.0146
304.09404,-0.0148
304.09405,-0.0153
304.09406,-0.0149
304.09407,-0.0147
304.09409,-0.0152
304.0941,-0.0151
304.09411,-0.0146
304.09412,-0.0145
304.09413,-0.0153
304.09414,-0.0154
304.09416,-0.0138
304.09417,-0.0135
304.09418,-0.0140
304.09419,-0.0139
304.0942,-0.0139
304.09421,-0.0147
304.09422,-0.0148
304.09424,-0.0139
304.09425,-0.0133
304.09426,-0.0130
304.09427,-0.0129
304.09428,-0.0134
304.09429,-0.0133
304.09431,-0.0127
304.09432,-0.0131
304.09433,-0.0138
304.09434,-0.0134
304.09435,-0.0133
304.09436,-0.0140
304.09438,-0.0140
304.09439,-0.0139
304.0944,-0.0140
304.09441,-0.0146
304.09442,-0.0149
304.09443,-0.0143
304.09444,-0.0134
304.09446,-0.0137
304.09447,-0.0146
304.09448,-0.0143
304.09449,-0.0140
304.0945,-0.0142
304.09451,-0.0145
304.09453,-0.0145
304.09454,-0.0142
304.09455,-0.0144
304.09456,-0.0148
304.09457,-0.0148
304.09458,-0.0143
304.09459,-0.0135
304.09461,-0.0138
304.09462,-0.0151
304.09463,-0.0141
304.09464,-0.0132
304.09465,-0.0138
304.09466,-0.0140
304.09468,-0.0137
304.09469,-0.0136
304.0947,-0.0132
304.09471,-0.0134
304.09472,-0.0139
304.09473,-0.0131
304.09475,-0.0129
304.09476,-0.0138
304.09477,-0.0137
304.09478,-0.0139
304.09479,-0.0141
304.0948,-0.0142
304.09481,-0.0139
304.09483,-0.0136
304.09484,-0.0136
304.09485,-0.0141
304.09486,-0.0139
304.09487,-0.0144
304.09488,-0.0144
304.0949,-0.0138
304.09491,-0.0132
304.09492,-0.0130
304.09493,-0.0135
304.09494,-0.0134
304.09495,-0.0127
304.09497,-0.0120
304.09498,-0.0123
304.09499,-0.0126
304.095,-0.0135
304.09501,-0.0137
304.09502,-0.0135
304.09503,-0.0133
304.09505,-0.0126
304.09506,-0.0127
304.09507,-0.0127
304.09508,-0.0129
304.09509,-0.0130
304.0951,-0.0140
304.09512,-0.0143
304.09513,-0.0137
304.09514,-0.0136
304.09515,-0.0128
304.09516,-0.0127
304.09517,-0.0129
304.09519,-0.0127
304.0952,-0.0125
304.09521,-0.0123
304.09522,-0.0128
304.09523,-0.0139
304.09524,-0.0141
304.09525,-0.0133
304.09527,-0.0135
304.09528,-0.0139
304.09529,-0.0134
304.0953,-0.0131
304.09531,-0.0129
304.09532,-0.0125
304.09534,-0.0128
304.09535,-0.0126
304.09536,-0.0128
304.09537,-0.0131
304.09538,-0.0127
304.09539,-0.0126
304.09541,-0.0127
304.09542,-0.0127
304.09543,-0.0128
304.09544,-0.0131
304.09545,-0.0127
304.09546,-0.0123
304.09547,-0.0122
304.09549,-0.0135
304.0955,-0.0137
304.09551,-0.0131
304.09552,-0.0132
304.09553,-0.0137
304.09554,-0.0139
304.09556,-0.0136
304.09557,-0.0140
304.09558,-0.0137
304.09559,-0.0133
304.0956,-0.0138
304.09561,-0.0143
304.09562,-0.0137
304.09564,-0.0127
304.09565,-0.0133
304.09566,-0.0123
304.09567,-0.0126
304.09568,-0.0127
304.09569,-0.0125
304.09571,-0.0123
304.09572,-0.0129
304.09573,-0.0121
304.09574,-0.0116
304.09575,-0.0126
304.09576,-0.0131
304.09578,-0.0128
304.09579,-0.0129
304.0958,-0.0122
304.09581,-0.0117
304.09582,-0.0121
304.09583,-0.0121
304.09584,-0.0121
304.09586,-0.0125
304.09587,-0.0132
304.09588,-0.0133
304.09589,-0.0127
304.0959,-0.0129
304.09591,-0.0131
304.09593,-0.0128
304.09594,-0.0127
304.09595,-0.0135
304.09596,-0.0132
304.09597,-0.0127
304.09598,-0.0131
304.096,-0.0133
304.09601,-0.0130
304.09602,-0.0133
304.09603,-0.0127
304.09604,-0.0126
304.09605,-0.0121
304.09606,-0.0116
304.09608,-0.0119
304.09609,-0.0130
304.0961,-0.0133
304.09611,-0.0135
304.09612,-0.0135
304.09613,-0.0132
304.09615,-0.0129
304.09616,-0.0128
304.09617,-0.0125
304.09618,-0.0122
304.09619,-0.0127
304.0962,-0.0131
304.09622,-0.0125
304.09623,-0.0117
304.09624,-0.0116
304.09625,-0.0121
304.09626,-0.0118
304.09627,-0.0125
304.09628,-0.0134
304.0963,-0.0133
304.09631,-0.0125
304.09632,-0.0119
304.09633,-0.0116
304.09634,-0.0116
304.09635,-0.0115
304.09637,-0.0120
304.09638,-0.0121
304.09639,-0.0126
304.0964,-0.0129
304.09641,-0.0121
304.09642,-0.0116
304.09644,-0.0109
304.09645,-0.0117
304.09646,-0.0122
304.09647,-0.0122
304.09648,-0.0123
304.09649,-0.0119
304.0965,-0.0122
304.09652,-0.0123
304.09653,-0.0120
304.09654,-0.0118
304.09655,-0.0117
304.09656,-0.0125
304.09657,-0.0128
304.09659,-0.0116
304.0966,-0.0113
304.09661,-0.0120
304.09662,-0.0123
304.09663,-0.0123
304.09664,-0.0116
304.09666,-0.0113
304.09667,-0.0112
304.09668,-0.0116
304.09669,-0.0118
304.0967,-0.0126
304.09671,-0.0127
304.09672,-0.0120
304.09674,-0.0118
304.09675,-0.0121
304.09676,-0.0116
304.09677,-0.0118
304.09678,-0.0115
304.09679,-0.0119
304.09681,-0.0116
304.09682,-0.0111
304.09683,-0.0120
304.09684,-0.0119
304.09685,-0.0114
304.09686,-0.0117
304.09687,-0.0123
304.09689,-0.0122
304.0969,-0.0117
304.09691,-0.0115
304.09692,-0.0120
304.09693,-0.0117
304.09694,-0.0122
304.09696,-0.0127
304.09697,-0.0122
304.09698,-0.0119
304.09699,-0.0116
304.097,-0.0118
304.09701,-0.0111
304.09703,-0.0106
304.09704,-0.0112
304.09705,-0.0113
304.09706,-0.0114
304.09707,-0.0117
304.09708,-0.0116
304.09709,-0.0114
304.09711,-0.0122
304.09712,-0.0124
304.09713,-0.0122
304.09714,-0.0113
304.09715,-0.0107
304.09716,-0.0109
304.09718,-0.0110
304.09719,-0.0108
304.0972,-0.0109
304.09721,-0.0109
304.09722,-0.0116
304.09723,-0.0120
304.09725,-0.0113
304.09726,-0.0108
304.09727,-0.0107
304.09728,-0.0106
304.09729,-0.0115
304.0973,-0.0108
304.09731,-0.0112
304.09733,-0.0120
304.09734,-0.0112
304.09735,-0.0113
304.09736,-0.0118
304.09737,-0.0111
304.09738,-0.0112
304.0974,-0.0109
304.09741,-0.0116
304.09742,-0.0111
304.09743,-0.0106
304.09744,-0.0115
304.09745,-0.0112
304.09747,-0.0110
304.09748,-0.0113
304.09749,-0.0125
304.0975,-0.0123
304.09751,-0.0113
304.09752,-0.0112
304.09753,-0.0112
304.09755,-0.0113
304.09756,-0.0112
304.09757,-0.0113
304.09758,-0.0118
304.09759,-0.0117
304.0976,-0.0114
304.09762,-0.0106
304.09763,-0.0114
304.09764,-0.0114
304.09765,-0.0106
304.09766,-0.0106
304.09767,-0.0117
304.09769,-0.0121
304.0977,-0.0117
304.09771,-0.0117
304.09772,-0.0112
304.09773,-0.0116
304.09774,-0.0121
304.09775,-0.0121
304.09777,-0.0108
304.09778,-0.0107
304.09779,-0.0107
304.0978,-0.0108
304.09781,-0.0109
304.09782,-0.0104
304.09784,-0.0106
304.09785,-0.0105
304.09786,-0.0100
304.09787,-0.0105
304.09788,-0.0106
304.09789,-0.0106
304.09791,-0.0117
304.09792,-0.0123
304.09793,-0.0115
304.09794,-0.0102
304.09795,-0.0095
304.09796,-0.0100
304.09797,-0.0100
304.09799,-0.0106
304.098,-0.0112
304.09801,-0.0107
304.09802,-0.0100
304.09803,-0.0102
304.09804,-0.0106
304.09806,-0.0111
304.09807,-0.0110
304.09808,-0.0118
304.09809,-0.0114
304.0981,-0.0104
304.09811,-0.0108
304.09812,-0.0112
304.09814,-0.0111
304.09815,-0.0107
304.09816,-0.0109
304.09817,-0.0109
304.09818,-0.0103
304.09819,-0.0100
304.09821,-0.0104
304.09822,-0.0104
304.09823,-0.0105
304.09824,-0.0099
304.09825,-0.0098
304.09826,-0.0104
304.09828,-0.0100
304.09829,-0.0099
304.0983,-0.0098
304.09831,-0.0103
304.09832,-0.0108
304.09833,-0.0105
304.09834,-0.0118
304.09836,-0.0118
304.09837,-0.0104
304.09838,-0.0110
304.09839,-0.0111
304.0984,-0.0112
304.09841,-0.0109
304.09843,-0.0112
304.09844,-0.0110
304.09845,-0.0104
304.09846,-0.0108
304.09847,-0.0114
304.09848,-0.0099
304.0985,-0.0096
304.09851,-0.0106
304.09852,-0.0109
304.09853,-0.0097
304.09854,-0.0086
304.09855,-0.0090
304.09856,-0.0098
304.09858,-0.0106
304.09859,-0.0109
304.0986,-0.0104
304.09861,-0.0106
304.09862,-0.0108
304.09863,-0.0102
304.09865,-0.0107
304.09866,-0.0108
304.09867,-0.0103
304.09868,-0.0104
304.09869,-0.0112
304.0987,-0.0110
304.09872,-0.0103
304.09873,-0.0104
304.09874,-0.0101
304.09875,-0.0109
304.09876,-0.0122
304.09877,-0.0118
304.09878,-0.0108
304.0988,-0.0103
304.09881,-0.0097
304.09882,-0.0104
304.09883,-0.0102
304.09884,-0.0099
304.09885,-0.0106
304.09887,-0.0104
304.09888,-0.0103
304.09889,-0.0109
304.0989,-0.0111
304.09891,-0.0102
304.09892,-0.0096
304.09894,-0.0092
304.09895,-0.0096
304.09896,-0.0104
304.09897,-0.0102
304.09898,-0.0105
304.09899,-0.0103
304.099,-0.0104
304.09902,-0.0111
304.09903,-0.0108
304.09904,-0.0100
304.09905,-0.0098
304.09906,-0.0101
304.09907,-0.0100
304.09909,-0.0096
304.0991,-0.0098
304.09911,-0.0101
304.09912,-0.0108
304.09913,-0.0106
304.09914,-0.0110
304.09916,-0.0107
304.09917,-0.0102
304.09918,-0.0110
304.09919,-0.0108
304.0992,-0.0108
304.09921,-0.0106
304.09922,-0.0108
304.09924,-0.0100
304.09925,-0.0100
304.09926,-0.0104
304.09927,-0.0096
304.09928,-0.0091
304.09929,-0.0096
304.09931,-0.0104
304.09932,-0.0101
304.09933,-0.0101
304.09934,-0.0101
304.09935,-0.0103
304.09936,-0.0100
304.09937,-0.0100
304.09939,-0.0100
304.0994,-0.0101
304.09941,-0.0098
304.09942,-0.0100
304.09943,-0.0104
304.09944,-0.0098
304.09946,-0.0093
304.09947,-0.0095
304.09948,-0.0098
304.09949,-0.0101
304.0995,-0.0098
304.09951,-0.0101
304.09953,-0.0099
304.09954,-0.0101
304.09955,-0.0105
304.09956,-0.0108
304.09957,-0.0098
304.09958,-0.0090
304.09959,-0.0100
304.09961,-0.0104
304.09962,-0.0105
304.09963,-0.0105
304.09964,-0.0102
304.09965,-0.0102
304.09966,-0.0108
304.09969,-0.0109
304.0997,-0.0108
304.0997,-0.0105
304.09971,-0.0109
304.09972,-0.0101
304.09973,-0.0095
304.09975,-0.0097
304.09976,-0.0096
304.09977,-0.0102
304.09978,-0.0104
304.09979,-0.0098
304.0998,-0.0099
304.09981,-0.0098
304.09983,-0.0098
304.09984,-0.0098
304.09985,-0.0091
304.09987,-0.0092
304.09988,-0.0097
304.0999,-0.0099
304.09991,-0.0100
304.09992,-0.0095
304.09993,-0.0100
304.09994,-0.0100
304.09994,-0.0103
304.09995,-0.0098
304.09997,-0.0099
304.09998,-0.0099
304.09999,-0.0099
304.1,-0.0103
304.10001,-0.0094
304.10002,-0.0088
304.10003,-0.0099
304.10006,-0.0101
304.10007,-0.0093
304.10008,-0.0094
304.10009,-0.0102
304.1001,-0.0101
304.10012,-0.0104
304.10013,-0.0100
304.10014,-0.0096
304.10015,-0.0098
304.10016,-0.0105
304.10017,-0.0103
304.10019,-0.0105
304.1002,-0.0103
304.1002,-0.0100
304.10021,-0.0095
304.10022,-0.0091
304.10024,-0.0095
304.10025,-0.0092
304.10027,-0.0098
304.10028,-0.0109
304.10029,-0.0115
304.1003,-0.0103
304.10031,-0.0104
304.10032,-0.0108
304.10034,-0.0106
304.10035,-0.0101
304.10036,-0.0104
304.10037,-0.0107
304.10038,-0.0107
304.10039,-0.0103
304.10041,-0.0104
304.10042,-0.0103
304.10043,-0.0102
304.10044,-0.0101
304.10045,-0.0096
304.10046,-0.0098
304.10047,-0.0104
304.10049,-0.0107
304.1005,-0.0107
304.10051,-0.0099
304.10052,-0.0088
304.10053,-0.0092
304.10054,-0.0095
304.10056,-0.0098
304.10057,-0.0100
304.10058,-0.0098
304.10059,-0.0097
304.1006,-0.0099
304.10061,-0.0094
304.10062,-0.0095
304.10064,-0.0100
304.10065,-0.0100
304.10066,-0.0106
304.10067,-0.0103
304.10068,-0.0097
304.10069,-0.0095
304.10071,-0.0099
304.10072,-0.0097
304.10073,-0.0095
304.10074,-0.0097
304.10075,-0.0103
304.10076,-0.0109
304.10078,-0.0106
304.10079,-0.0100
304.1008,-0.0102
304.10081,-0.0096
304.10082,-0.0092
304.10083,-0.0102
304.10084,-0.0106
304.10086,-0.0105
304.10087,-0.0103
304.10088,-0.0098
304.10089,-0.0097
304.1009,-0.0104
304.10091,-0.0104
304.10093,-0.0103
304.10094,-0.0098
304.10095,-0.0097
304.10096,-0.0105
304.10097,-0.0111
304.10098,-0.0104
304.101,-0.0101
304.10101,-0.0101
304.10102,-0.0091
304.10103,-0.0097
304.10104,-0.0106
304.10105,-0.0103
304.10106,-0.0096
304.10108,-0.0098
304.10109,-0.0092
304.1011,-0.0098
304.10111,-0.0104
304.10112,-0.0106
304.10113,-0.0112
304.10115,-0.0105
304.10116,-0.0108
304.10117,-0.0104
304.10118,-0.0098
304.10119,-0.0097
304.1012,-0.0109
304.10122,-0.0108
304.10123,-0.0100
304.10124,-0.0100
304.10125,-0.0101
304.10126,-0.0105
304.10127,-0.0105
304.10128,-0.0112
304.1013,-0.0102
304.10131,-0.0095
304.10132,-0.0098
304.10133,-0.0102
304.10134,-0.0097
304.10135,-0.0096
304.10137,-0.0106
304.10138,-0.0107
304.10139,-0.0102
304.1014,-0.0105
304.10141,-0.0104
304.10142,-0.0099
304.10144,-0.0100
304.10145,-0.0106
304.10146,-0.0106
304.10147,-0.0101
304.10148,-0.0102
304.10149,-0.0107
304.1015,-0.0104
304.10152,-0.0099
304.10153,-0.0097
304.10154,-0.0101
304.10155,-0.0107
304.10156,-0.0104
304.10157,-0.0105
304.10159,-0.0099
304.1016,-0.0097
304.10161,-0.0100
304.10162,-0.0099
304.10163,-0.0102
304.10164,-0.0099
304.10166,-0.0100
304.10167,-0.0100
304.10168,-0.0103
304.10169,-0.0102
304.1017,-0.0097
304.10171,-0.0095
304.10172,-0.0093
304.10174,-0.0097
304.10175,-0.0104
304.10176,-0.0110
304.10177,-0.0112
304.10178,-0.0103
304.10179,-0.0105
304.10181,-0.0103
304.10182,-0.0097
304.10183,-0.0095
304.10184,-0.0094
304.10185,-0.0098
304.10186,-0.0103
304.10188,-0.0109
304.10189,-0.0095
304.1019,-0.0095
304.10191,-0.0103
304.10192,-0.0099
304.10193,-0.0098
304.10194,-0.0093
304.10196,-0.0098
304.10197,-0.0102
304.10198,-0.0100
304.10199,-0.0096
304.102,-0.0093
304.10201,-0.0097
304.10203,-0.0102
304.10204,-0.0102
304.10205,-0.0107
304.10206,-0.0108
304.10207,-0.0104
304.10208,-0.0103
304.10209,-0.0107
304.10211,-0.0105
304.10212,-0.0104
304.10213,-0.0097
304.10214,-0.0104
304.10215,-0.0103
304.10216,-0.0097
304.10218,-0.0103
304.10219,-0.0117
304.1022,-0.0114
304.10221,-0.0103
304.10222,-0.0105
304.10223,-0.0111
304.10225,-0.0108
304.10226,-0.0105
304.10227,-0.0097
304.10228,-0.0099
304.10229,-0.0101
304.1023,-0.0095
304.10231,-0.0097
304.10233,-0.0099
304.10234,-0.0099
304.10235,-0.0101
304.10236,-0.0107
304.10237,-0.0097
304.10238,-0.0094
304.1024,-0.0101
304.10241,-0.0099
304.10242,-0.0101
304.10243,-0.0103
304.10244,-0.0101
304.10245,-0.0095
304.10247,-0.0091
304.10248,-0.0100
304.10249,-0.0104
304.1025,-0.0097
304.10251,-0.0106
304.10252,-0.0109
304.10253,-0.0100
304.10255,-0.0101
304.10256,-0.0102
304.10257,-0.0097
304.10258,-0.0101
304.10259,-0.0110
304.1026,-0.0106
304.10262,-0.0105
304.10263,-0.0100
304.10264,-0.0094
304.10265,-0.0099
304.10266,-0.0100
304.10267,-0.0102
304.10269,-0.0100
304.1027,-0.0096
304.10271,-0.0102
304.10272,-0.0105
304.10273,-0.0105
304.10274,-0.0108
304.10275,-0.0115
304.10277,-0.0116
304.10278,-0.0113
304.10279,-0.0102
304.1028,-0.0098
304.10281,-0.0098
304.10282,-0.0101
304.10284,-0.0109
304.10285,-0.0110
304.10286,-0.0103
304.10287,-0.0107
304.10288,-0.0112
304.10289,-0.0103
304.10291,-0.0099
304.10292,-0.0109
304.10293,-0.0116
304.10294,-0.0109
304.10295,-0.0100
304.10296,-0.0104
304.10297,-0.0101
304.10299,-0.0101
304.103,-0.0099
304.10301,-0.0103
304.10302,-0.0107
304.10303,-0.0111
304.10304,-0.0118
304.10306,-0.0127
304.10307,-0.0122
304.10308,-0.0116
304.10309,-0.0117
304.1031,-0.0118
304.10311,-0.0115
304.10312,-0.0110
304.10314,-0.0116
304.10315,-0.0120
304.10316,-0.0120
304.10317,-0.0116
304.10318,-0.0116
304.10319,-0.0121
304.10321,-0.0120
304.10322,-0.0121
304.10323,-0.0118
304.10324,-0.0117
304.10325,-0.0112
304.10326,-0.0117
304.10328,-0.0115
304.10329,-0.0110
304.1033,-0.0114
304.10331,-0.0115
304.10332,-0.0099
304.10333,-0.0096
304.10334,-0.0106
304.10336,-0.0103
304.10337,-0.0103
304.10338,-0.0106
304.10339,-0.0107
304.1034,-0.0107
304.10341,-0.0103
304.10343,-0.0112
304.10344,-0.0112
304.10345,-0.0105
304.10346,-0.0111
304.10347,-0.0118
304.10348,-0.0113
304.1035,-0.0111
304.10351,-0.0112
304.10352,-0.0123
304.10353,-0.0126
304.10354,-0.0125
304.10355,-0.0122
304.10356,-0.0122
304.10358,-0.0121
304.10359,-0.0122
304.1036,-0.0122
304.10361,-0.0134
304.10362,-0.0126
304.10363,-0.0121
304.10365,-0.0117
304.10366,-0.0118
304.10367,-0.0126
304.10368,-0.0131
304.10369,-0.0121
304.1037,-0.0121
304.10372,-0.0115
304.10373,-0.0107
304.10374,-0.0105
304.10375,-0.0104
304.10376,-0.0110
304.10377,-0.0110
304.10378,-0.0109
304.1038,-0.0113
304.10381,-0.0108
304.10382,-0.0106
304.10383,-0.0096
304.10384,-0.0098
304.10385,-0.0104
304.10387,-0.0102
304.10388,-0.0099
304.10389,-0.0102
304.1039,-0.0105
304.10391,-0.0105
304.10392,-0.0104
304.10394,-0.0109
304.10395,-0.0112
304.10396,-0.0105
304.10397,-0.0107
304.10398,-0.0103
304.10399,-0.0100
304.104,-0.0103
304.10402,-0.0101
304.10403,-0.0101
304.10404,-0.0105
304.10405,-0.0112
304.10406,-0.0109
304.10407,-0.0105
304.10409,-0.0103
304.1041,-0.0105
304.10411,-0.0111
304.10412,-0.0110
304.10413,-0.0106
304.10414,-0.0108
304.10416,-0.0103
304.10417,-0.0101
304.10418,-0.0104
304.10419,-0.0098
304.1042,-0.0103
304.10421,-0.0109
304.10422,-0.0116
304.10424,-0.0108
304.10425,-0.0106
304.10426,-0.0109
304.10427,-0.0110
304.10428,-0.0114
304.10429,-0.0107
304.10431,-0.0101
304.10432,-0.0104
304.10433,-0.0101
304.10434,-0.0099
304.10435,-0.0098
304.10436,-0.0103
304.10437,-0.0104
304.10439,-0.0108
304.1044,-0.0107
304.10441,-0.0104
304.10442,-0.0104
304.10443,-0.0100
304.10444,-0.0095
304.10446,-0.0096
304.10447,-0.0096
304.10448,-0.0102
304.10449,-0.0104
304.1045,-0.0097
304.10451,-0.0104
304.10453,-0.0102
304.10454,-0.0101
304.10455,-0.0104
304.10456,-0.0106
304.10457,-0.0104
304.10458,-0.0101
304.10459,-0.0099
304.10461,-0.0103
304.10462,-0.0102
304.10463,-0.0105
304.10464,-0.0104
304.10465,-0.0095
304.10466,-0.0089
304.10468,-0.0095
304.10469,-0.0104
304.1047,-0.0101
304.10471,-0.0108
304.10472,-0.0118
304.10473,-0.0110
304.10475,-0.0110
304.10476,-0.0122
304.10477,-0.0118
304.10478,-0.0107
304.10479,-0.0103
304.1048,-0.0109
304.10481,-0.0113
304.10483,-0.0118
304.10484,-0.0123
304.10485,-0.0118
304.10486,-0.0113
304.10487,-0.0108
304.10488,-0.0105
304.1049,-0.0103
304.10491,-0.0103
304.10492,-0.0100
304.10493,-0.0097
304.10494,-0.0100
304.10495,-0.0105
304.10497,-0.0105
304.10498,-0.0098
304.10499,-0.0096
304.105,-0.0094
304.10501,-0.0095
304.10502,-0.0095
304.10503,-0.0095
304.10505,-0.0102
304.10506,-0.0104
304.10507,-0.0097
304.10508,-0.0088
304.10509,-0.0089
304.1051,-0.0097
304.10512,-0.0093
304.10513,-0.0096
304.10514,-0.0096
304.10515,-0.0100
304.10516,-0.0098
304.10517,-0.0101
304.10519,-0.0095
304.1052,-0.0094
304.10521,-0.0088
304.10522,-0.0093
304.10523,-0.0100
304.10524,-0.0094
304.10525,-0.0094
304.10527,-0.0103
304.10528,-0.0100
304.10529,-0.0098
304.1053,-0.0098
304.10531,-0.0099
304.10532,-0.0108
304.10534,-0.0101
304.10535,-0.0101
304.10536,-0.0102
304.10537,-0.0103
304.10538,-0.0108
304.10539,-0.0105
304.10541,-0.0105
304.10542,-0.0108
304.10543,-0.0109
304.10544,-0.0105
304.10545,-0.0105
304.10546,-0.0106
304.10547,-0.0104
304.10549,-0.0105
304.1055,-0.0102
304.10551,-0.0100
304.10552,-0.0103
304.10553,-0.0105
304.10554,-0.0107
304.10556,-0.0102
304.10557,-0.0103
304.10558,-0.0104
304.10559,-0.0112
304.1056,-0.0104
304.10561,-0.0097
304.10562,-0.0106
304.10564,-0.0112
304.10565,-0.0098
304.10566,-0.0093
304.10567,-0.0104
304.10568,-0.0105
304.10569,-0.0107
304.10571,-0.0108
304.10572,-0.0103
304.10573,-0.0101
304.10574,-0.0107
304.10575,-0.0107
304.10576,-0.0101
304.10578,-0.0103
304.10579,-0.0099
304.1058,-0.0097
304.10581,-0.0101
304.10582,-0.0103
304.10583,-0.0101
304.10584,-0.0102
304.10586,-0.0102
304.10587,-0.0101
304.10588,-0.0100
304.10589,-0.0102
304.1059,-0.0104
304.10591,-0.0104
304.10593,-0.0111
304.10594,-0.0110
304.10595,-0.0110
304.10596,-0.0103
304.10597,-0.0102
304.10598,-0.0104
304.106,-0.0102
304.10601,-0.0103
304.10602,-0.0104
304.10603,-0.0106
304.10604,-0.0112
304.10605,-0.0108
304.10606,-0.0104
304.10608,-0.0115
304.10609,-0.0117
304.1061,-0.0110
304.10611,-0.0113
304.10612,-0.0105
304.10613,-0.0108
304.10615,-0.0110
304.10616,-0.0103
304.10617,-0.0102
304.10618,-0.0099
304.10619,-0.0093
304.1062,-0.0102
304.10622,-0.0110
304.10623,-0.0106
304.10624,-0.0108
304.10625,-0.0113
304.10626,-0.0103
304.10627,-0.0097
304.10628,-0.0099
304.1063,-0.0097
304.10631,-0.0102
304.10632,-0.0104
304.10633,-0.0103
304.10634,-0.0113
304.10635,-0.0108
304.10637,-0.0098
304.10638,-0.0103
304.10639,-0.0112
304.1064,-0.0109
304.10641,-0.0108
304.10642,-0.0108
304.10644,-0.0098
304.10645,-0.0102
304.10646,-0.0112
304.10647,-0.0107
304.10648,-0.0100
304.10649,-0.0101
304.1065,-0.0101
304.10652,-0.0105
304.10653,-0.0116
304.10654,-0.0115
304.10655,-0.0101
304.10656,-0.0105
304.10657,-0.0108
304.10659,-0.0107
304.1066,-0.0107
304.10661,-0.0107
304.10662,-0.0107
304.10663,-0.0104
304.10664,-0.0100
304.10666,-0.0102
304.10667,-0.0109
304.10668,-0.0112
304.10669,-0.0109
304.1067,-0.0101
304.10671,-0.0096
304.10672,-0.0102
304.10674,-0.0107
304.10675,-0.0105
304.10676,-0.0100
304.10677,-0.0103
304.10678,-0.0109
304.10679,-0.0111
304.10681,-0.0107
304.10682,-0.0102
304.10683,-0.0103
304.10684,-0.0105
304.10685,-0.0101
304.10686,-0.0110
304.10688,-0.0107
304.10689,-0.0100
304.1069,-0.0095
304.10691,-0.0105
304.10692,-0.0106
304.10693,-0.0102
304.10694,-0.0104
304.10696,-0.0104
304.10697,-0.0103
304.10698,-0.0106
304.10699,-0.0109
304.107,-0.0112
304.10701,-0.0116
304.10703,-0.0109
304.10704,-0.0109
304.10705,-0.0102
304.10706,-0.0097
304.10707,-0.0104
304.10708,-0.0108
304.10709,-0.0109
304.10711,-0.0107
304.10712,-0.0105
304.10713,-0.0105
304.10714,-0.0103
304.10715,-0.0104
304.10716,-0.0103
304.10718,-0.0111
304.10719,-0.0106
304.1072,-0.0107
304.10721,-0.0111
304.10722,-0.0109
304.10723,-0.0110
304.10725,-0.0117
304.10726,-0.0112
304.10727,-0.0104
304.10729,-0.0105
304.1073,-0.0113
304.1073,-0.0112
304.10731,-0.0113
304.10733,-0.0118
304.10734,-0.0114
304.10735,-0.0102
304.10736,-0.0094
304.10737,-0.0098
304.10738,-0.0109
304.1074,-0.0108
304.10741,-0.0103
304.10742,-0.0111
304.10743,-0.0113
304.10744,-0.0110
304.10745,-0.0104
304.10748,-0.0098
304.10749,-0.0097
304.1075,-0.0093
304.10751,-0.0093
304.10752,-0.0104
304.10753,-0.0110
304.10755,-0.0104
304.10756,-0.0109
304.10757,-0.0109
304.10757,-0.0097
304.10758,-0.0097
304.10759,-0.0102
304.1076,-0.0105
304.10762,-0.0103
304.10763,-0.0100
304.10764,-0.0101
304.10765,-0.0102
304.10767,-0.0104
304.10769,-0.0108
304.1077,-0.0106
304.10771,-0.0108
304.10772,-0.0107
304.10773,-0.0103
304.10774,-0.0105
304.10775,-0.0106
304.10777,-0.0102
304.10778,-0.0103
304.10779,-0.0107
304.1078,-0.0111
304.10781,-0.0111
304.10782,-0.0115
304.10784,-0.0110
304.10784,-0.0105
304.10785,-0.0107
304.10787,-0.0105
304.10788,-0.0098
304.10789,-0.0096
304.10791,-0.0104
304.10792,-0.0102
304.10793,-0.0108
304.10794,-0.0114
304.10795,-0.0102
304.10796,-0.0099
304.10797,-0.0101
304.10799,-0.0097
304.108,-0.0107
304.10801,-0.0113
304.10802,-0.0110
304.10803,-0.0115
304.10804,-0.0111
304.10806,-0.0108
304.10807,-0.0106
304.10808,-0.0104
304.10809,-0.0102
304.1081,-0.0099
304.10811,-0.0105
304.10812,-0.0107
304.10814,-0.0107
304.10815,-0.0101
304.10816,-0.0096
304.10817,-0.0102
304.10818,-0.0105
304.10819,-0.0109
304.10821,-0.0110
304.10822,-0.0105
304.10823,-0.0105
304.10824,-0.0102
304.10825,-0.0101
304.10826,-0.0110
304.10828,-0.0110
304.10829,-0.0103
304.1083,-0.0107
304.10831,-0.0105
304.10832,-0.0099
304.10833,-0.0101
304.10834,-0.0105
304.10836,-0.0100
304.10837,-0.0098
304.10838,-0.0105
304.10839,-0.0109
304.1084,-0.0103
304.10841,-0.0103
304.10843,-0.0108
304.10844,-0.0104
304.10845,-0.0101
304.10846,-0.0108
304.10847,-0.0105
304.10848,-0.0097
304.1085,-0.0100
304.10851,-0.0099
304.10852,-0.0094
304.10853,-0.0095
304.10854,-0.0100
304.10855,-0.0101
304.10856,-0.0098
304.10858,-0.0103
304.10859,-0.0103
304.1086,-0.0104
304.10861,-0.0100
304.10862,-0.0102
304.10863,-0.0103
304.10865,-0.0099
304.10866,-0.0102
304.10867,-0.0110
304.10868,-0.0099
304.10869,-0.0096
304.1087,-0.0101
304.10872,-0.0100
304.10873,-0.0105
304.10874,-0.0109
304.10875,-0.0112
304.10876,-0.0107
304.10877,-0.0101
304.10878,-0.0096
304.1088,-0.0097
304.10881,-0.0101
304.10882,-0.0100
304.10883,-0.0103
304.10884,-0.0095
304.10885,-0.0094
304.10887,-0.0096
304.10888,-0.0099
304.10889,-0.0096
304.1089,-0.0094
304.10891,-0.0094
304.10892,-0.0096
304.10894,-0.0098
304.10895,-0.0097
304.10896,-0.0094
304.10897,-0.0092
304.10898,-0.0097
304.10899,-0.0092
304.109,-0.0093
304.10902,-0.0096
304.10903,-0.0100
304.10904,-0.0103
304.10905,-0.0101
304.10906,-0.0101
304.10907,-0.0097
304.10909,-0.0101
304.1091,-0.0098
304.10911,-0.0097
304.10912,-0.0108
304.10913,-0.0110
304.10914,-0.0112
304.10916,-0.0100
304.10917,-0.0095
304.10918,-0.0096
304.10919,-0.0105
304.1092,-0.0105
304.10921,-0.0096
304.10922,-0.0091
304.10924,-0.0098
304.10925,-0.0102
304.10926,-0.0103
304.10927,-0.0102
304.10928,-0.0098
304.10929,-0.0101
304.10931,-0.0104
304.10932,-0.0097
304.10933,-0.0094
304.10934,-0.0091
304.10935,-0.0095
304.10936,-0.0099
304.10938,-0.0101
304.10939,-0.0098
304.1094,-0.0101
304.10941,-0.0102
304.10942,-0.0096
304.10943,-0.0098
304.10944,-0.0103
304.10946,-0.0103
304.10947,-0.0103
304.10948,-0.0104
304.10949,-0.0108
304.1095,-0.0109
304.10951,-0.0109
304.10953,-0.0101
304.10954,-0.0100
304.10955,-0.0101
304.10956,-0.0096
304.10957,-0.0098
304.10958,-0.0097
304.10959,-0.0098
304.10961,-0.0105
304.10962,-0.0111
304.10963,-0.0103
304.10964,-0.0101
304.10965,-0.0105
304.10966,-0.0110
304.10968,-0.0105
304.10969,-0.0094
304.1097,-0.0097
304.10971,-0.0102
304.10972,-0.0101
304.10973,-0.0096
304.10975,-0.0102
304.10976,-0.0111
304.10977,-0.0109
304.10978,-0.0109
304.10979,-0.0101
304.1098,-0.0099
304.10981,-0.0103
304.10983,-0.0094
304.10984,-0.0096
304.10985,-0.0103
304.10986,-0.0101
304.10987,-0.0099
304.10988,-0.0098
304.1099,-0.0092
304.10991,-0.0092
304.10992,-0.0099
304.10993,-0.0105
304.10994,-0.0101
304.10995,-0.0093
304.10997,-0.0101
304.10998,-0.0103
304.10999,-0.0103
304.11,-0.0101
304.11001,-0.0093
304.11002,-0.0106
304.11003,-0.0119
304.11005,-0.0107
304.11006,-0.0095
304.11007,-0.0093
304.11008,-0.0101
304.11009,-0.0107
304.1101,-0.0104
304.11012,-0.0100
304.11013,-0.0098
304.11014,-0.0094
304.11015,-0.0094
304.11016,-0.0098
304.11017,-0.0100
304.11019,-0.0103
304.1102,-0.0107
304.11021,-0.0098
304.11022,-0.0089
304.11023,-0.0102
304.11024,-0.0102
304.11025,-0.0102
304.11027,-0.0094
304.11028,-0.0099
304.11029,-0.0096
304.1103,-0.0102
304.11031,-0.0107
304.11032,-0.0099
304.11034,-0.0099
304.11035,-0.0101
304.11036,-0.0095
304.11037,-0.0096
304.11038,-0.0102
304.11039,-0.0104
304.11041,-0.0101
304.11042,-0.0098
304.11043,-0.0092
304.11044,-0.0098
304.11045,-0.0097
304.11046,-0.0098
304.11047,-0.0094
304.11049,-0.0097
304.1105,-0.0101
304.11051,-0.0102
304.11052,-0.0098
304.11053,-0.0104
304.11054,-0.0107
304.11056,-0.0110
304.11057,-0.0104
304.11058,-0.0094
304.11059,-0.0094
304.1106,-0.0100
304.11061,-0.0104
304.11062,-0.0104
304.11064,-0.0104
304.11065,-0.0099
304.11066,-0.0101
304.11067,-0.0103
304.11068,-0.0094
304.11069,-0.0097
304.11071,-0.0097
304.11072,-0.0098
304.11073,-0.0103
304.11074,-0.0102
304.11075,-0.0105
304.11076,-0.0104
304.11078,-0.0107
304.11079,-0.0101
304.1108,-0.0097
304.11081,-0.0093
304.11082,-0.0090
304.11083,-0.0091
304.11084,-0.0094
304.11086,-0.0101
304.11087,-0.0102
304.11088,-0.0102
304.11089,-0.0101
304.1109,-0.0098
304.11091,-0.0102
304.11093,-0.0099
304.11094,-0.0099
304.11095,-0.0099
304.11096,-0.0102
304.11097,-0.0101
304.11098,-0.0095
304.111,-0.0092
304.11101,-0.0096
304.11102,-0.0091
304.11103,-0.0098
304.11104,-0.0103
304.11105,-0.0096
304.11106,-0.0097
304.11108,-0.0106
304.11109,-0.0104
304.1111,-0.0097
304.11111,-0.0093
304.11112,-0.0094
304.11113,-0.0098
304.11115,-0.0098
304.11116,-0.0093
304.11117,-0.0093
304.11118,-0.0098
304.11119,-0.0093
304.1112,-0.0089
304.11122,-0.0093
304.11123,-0.0098
304.11124,-0.0087
304.11125,-0.0085
304.11126,-0.0089
304.11127,-0.0088
304.11128,-0.0096
304.1113,-0.0100
304.11131,-0.0102
304.11132,-0.0097
304.11133,-0.0102
304.11134,-0.0102
304.11135,-0.0097
304.11137,-0.0094
304.11138,-0.0096
304.11139,-0.0104
304.1114,-0.0095
304.11141,-0.0088
304.11142,-0.0090
304.11144,-0.0088
304.11145,-0.0092
304.11146,-0.0100
304.11147,-0.0097
304.11148,-0.0097
304.11149,-0.0099
304.1115,-0.0099
304.11152,-0.0096
304.11153,-0.0093
304.11154,-0.0095
304.11155,-0.0097
304.11156,-0.0093
304.11157,-0.0096
304.11159,-0.0089
304.1116,-0.0093
304.11161,-0.0094
304.11162,-0.0087
304.11163,-0.0097
304.11164,-0.0102
304.11166,-0.0107
304.11167,-0.0104
304.11168,-0.0098
304.11169,-0.0094
304.1117,-0.0093
304.11171,-0.0086
304.11172,-0.0084
304.11174,-0.0093
304.11175,-0.0092
304.11176,-0.0092
304.11177,-0.0099
304.11178,-0.0102
304.11179,-0.0101
304.11181,-0.0096
304.11182,-0.0093
304.11183,-0.0093
304.11184,-0.0093
304.11185,-0.0099
304.11186,-0.0099
304.11187,-0.0094
304.11189,-0.0103
304.1119,-0.0098
304.11191,-0.0092
304.11192,-0.0089
304.11193,-0.0093
304.11194,-0.0098
304.11196,-0.0105
304.11197,-0.0100
304.11198,-0.0088
304.11199,-0.0086
304.112,-0.0094
304.11201,-0.0098
304.11203,-0.0099
304.11204,-0.0093
304.11205,-0.0088
304.11206,-0.0088
304.11207,-0.0092
304.11208,-0.0094
304.11209,-0.0099
304.11211,-0.0097
304.11212,-0.0086
304.11213,-0.0082
304.11214,-0.0091
304.11215,-0.0090
304.11216,-0.0085
304.11218,-0.0094
304.11219,-0.0095
304.1122,-0.0097
304.11221,-0.0103
304.11222,-0.0101
304.11223,-0.0097
304.11225,-0.0093
304.11226,-0.0092
304.11227,-0.0088
304.11228,-0.0094
304.11229,-0.0101
304.1123,-0.0098
304.11231,-0.0098
304.11233,-0.0098
304.11234,-0.0098
304.11235,-0.0091
304.11236,-0.0093
304.11237,-0.0102
304.11238,-0.0098
304.1124,-0.0104
304.11241,-0.0103
304.11242,-0.0104
304.11243,-0.0111
304.11244,-0.0103
304.11245,-0.0098
304.11247,-0.0104
304.11248,-0.0105
304.11249,-0.0103
304.1125,-0.0101
304.11251,-0.0105
304.11252,-0.0103
304.11253,-0.0101
304.11255,-0.0102
304.11256,-0.0094
304.11257,-0.0086
304.11258,-0.0093
304.11259,-0.0098
304.1126,-0.0103
304.11262,-0.0102
304.11263,-0.0100
304.11264,-0.0098
304.11265,-0.0095
304.11266,-0.0088
304.11267,-0.0089
304.11269,-0.0090
304.1127,-0.0090
304.11271,-0.0095
304.11272,-0.0097
304.11273,-0.0091
304.11274,-0.0099
304.11275,-0.0096
304.11277,-0.0085
304.11278,-0.0092
304.11279,-0.0102
304.1128,-0.0098
304.11281,-0.0094
304.11282,-0.0098
304.11284,-0.0102
304.11285,-0.0099
304.11286,-0.0090
304.11287,-0.0088
304.11288,-0.0085
304.11289,-0.0083
304.11291,-0.0090
304.11292,-0.0103
304.11293,-0.0098
304.11294,-0.0092
304.11295,-0.0085
304.11296,-0.0088
304.11297,-0.0093
304.11299,-0.0097
304.113,-0.0097
304.11301,-0.0093
304.11302,-0.0091
304.11303,-0.0095
304.11304,-0.0096
304.11306,-0.0092
304.11307,-0.0102
304.11308,-0.0096
304.11309,-0.0093
304.1131,-0.0095
304.11311,-0.0092
304.11312,-0.0093
304.11314,-0.0094
304.11315,-0.0098
304.11316,-0.0097
304.11317,-0.0101
304.11318,-0.0101
304.11319,-0.0099
304.11321,-0.0101
304.11322,-0.0096
304.11323,-0.0092
304.11324,-0.0091
304.11325,-0.0090
304.11326,-0.0091
304.11328,-0.0089
304.11329,-0.0098
304.1133,-0.0092
304.11331,-0.0087
304.11332,-0.0094
304.11333,-0.0095
304.11334,-0.0087
304.11336,-0.0094
304.11337,-0.0098
304.11338,-0.0094
304.11339,-0.0095
304.1134,-0.0104
304.11341,-0.0101
304.11343,-0.0095
304.11344,-0.0093
304.11345,-0.0093
304.11346,-0.0094
304.11347,-0.0088
304.11348,-0.0087
304.1135,-0.0093
304.11351,-0.0092
304.11352,-0.0091
304.11353,-0.0096
304.11354,-0.0096
304.11355,-0.0097
304.11356,-0.0098
304.11358,-0.0092
304.11359,-0.0094
304.1136,-0.0091
304.11361,-0.0096
304.11362,-0.0102
304.11363,-0.0101
304.11365,-0.0096
304.11366,-0.0087
304.11367,-0.0098
304.11368,-0.0110
304.11369,-0.0102
304.1137,-0.0091
304.11372,-0.0088
304.11373,-0.0089
304.11374,-0.0082
304.11375,-0.0085
304.11376,-0.0090
304.11377,-0.0088
304.11378,-0.0092
304.1138,-0.0093
304.11381,-0.0089
304.11382,-0.0095
304.11383,-0.0094
304.11384,-0.0094
304.11385,-0.0090
304.11387,-0.0088
304.11388,-0.0090
304.11389,-0.0093
304.1139,-0.0097
304.11391,-0.0100
304.11392,-0.0098
304.11394,-0.0096
304.11395,-0.0093
304.11396,-0.0086
304.11397,-0.0085
304.11398,-0.0088
304.11399,-0.0098
304.114,-0.0097
304.11402,-0.0100
304.11403,-0.0105
304.11404,-0.0098
304.11405,-0.0095
304.11406,-0.0093
304.11407,-0.0094
304.11409,-0.0089
304.1141,-0.0088
304.11411,-0.0089
304.11412,-0.0085
304.11413,-0.0077
304.11414,-0.0083
304.11416,-0.0084
304.11417,-0.0087
304.11418,-0.0095
304.11419,-0.0092
304.1142,-0.0092
304.11421,-0.0091
304.11422,-0.0084
304.11424,-0.0089
304.11425,-0.0093
304.11426,-0.0087
304.11427,-0.0087
304.11428,-0.0086
304.11429,-0.0088
304.11431,-0.0091
304.11432,-0.0090
304.11433,-0.0097
304.11434,-0.0095
304.11435,-0.0087
304.11436,-0.0088
304.11437,-0.0097
304.11439,-0.0099
304.1144,-0.0096
304.11441,-0.0087
304.11442,-0.0095
304.11443,-0.0097
304.11444,-0.0089
304.11446,-0.0094
304.11447,-0.0100
304.11448,-0.0097
304.11449,-0.0098
304.1145,-0.0092
304.11451,-0.0088
304.11453,-0.0093
304.11454,-0.0095
304.11455,-0.0088
304.11456,-0.0084
304.11457,-0.0095
304.11458,-0.0098
304.11459,-0.0096
304.11461,-0.0097
304.11462,-0.0087
304.11463,-0.0083
304.11464,-0.0091
304.11465,-0.0098
304.11466,-0.0092
304.11468,-0.0088
304.11469,-0.0089
304.1147,-0.0094
304.11471,-0.0097
304.11472,-0.0087
304.11473,-0.0086
304.11475,-0.0089
304.11476,-0.0086
304.11477,-0.0084
304.11478,-0.0085
304.11479,-0.0082
304.1148,-0.0093
304.11481,-0.0088
304.11483,-0.0087
304.11484,-0.0092
304.11485,-0.0088
304.11486,-0.0089
304.11487,-0.0096
304.11488,-0.0101
304.1149,-0.0095
304.11491,-0.0093
304.11492,-0.0090
304.11494,-0.0089
304.11495,-0.0097
304.11497,-0.0095
304.11497,-0.0086
304.11498,-0.0088
304.11499,-0.0094
304.115,-0.0105
304.11501,-0.0106
304.11502,-0.0100
304.11503,-0.0105
304.11505,-0.0102
304.11506,-0.0098
304.11507,-0.0095
304.11508,-0.0093
304.11509,-0.0090
304.1151,-0.0093
304.11513,-0.0098
304.11514,-0.0092
304.11515,-0.0097
304.11516,-0.0100
304.11517,-0.0093
304.11519,-0.0083
304.1152,-0.0080
304.11521,-0.0089
304.11522,-0.0092
304.11523,-0.0093
304.11523,-0.0093
304.11524,-0.0091
304.11525,-0.0090
304.11527,-0.0091
304.11528,-0.0091
304.11529,-0.0090
304.11531,-0.0083
304.11532,-0.0084
304.11534,-0.0086
304.11535,-0.0082
304.11536,-0.0088
304.11537,-0.0079
304.11538,-0.0090
304.11539,-0.0100
304.11541,-0.0103
304.11542,-0.0099
304.11543,-0.0102
304.11544,-0.0106
304.11545,-0.0107
304.11546,-0.0101
304.11547,-0.0098
304.11547,-0.0113
304.1155,-0.0136
304.11551,-0.0130
304.11552,-0.0122
304.11553,-0.0126
304.11554,-0.0128
304.11556,-0.0119
304.11557,-0.0118
304.11558,-0.0119
304.11559,-0.0115
304.1156,-0.0106
304.11561,-0.0103
304.11562,-0.0107
304.11564,-0.0098
304.11565,-0.0106
304.11566,-0.0113
304.11567,-0.0106
304.11568,-0.0105
304.11569,-0.0105
304.11571,-0.0103
304.11572,-0.0102
304.11573,-0.0105
304.11574,-0.0109
304.11575,-0.0112
304.11576,-0.0105
304.11578,-0.0097
304.11579,-0.0098
304.1158,-0.0105
304.11581,-0.0107
304.11582,-0.0107
304.11583,-0.0106
304.11584,-0.0104
304.11586,-0.0096
304.11587,-0.0095
304.11588,-0.0095
304.11589,-0.0098
304.1159,-0.0102
304.11591,-0.0099
304.11593,-0.0095
304.11594,-0.0100
304.11595,-0.0100
304.11596,-0.0101
304.11597,-0.0110
304.11598,-0.0111
304.116,-0.0102
304.11601,-0.0093
304.11602,-0.0099
304.11603,-0.0102
304.11604,-0.0100
304.11605,-0.0090
304.11606,-0.0089
304.11608,-0.0098
304.11609,-0.0104
304.1161,-0.0107
304.11611,-0.0101
304.11612,-0.0099
304.11613,-0.0102
304.11615,-0.0103
304.11616,-0.0101
304.11617,-0.0104
304.11618,-0.0101
304.11619,-0.0092
304.1162,-0.0096
304.11622,-0.0103
304.11623,-0.0100
304.11624,-0.0099
304.11625,-0.0099
304.11626,-0.0102
304.11627,-0.0103
304.11628,-0.0104
304.1163,-0.0103
304.11631,-0.0101
304.11632,-0.0110
304.11633,-0.0113
304.11634,-0.0105
304.11635,-0.0098
304.11637,-0.0098
304.11638,-0.0106
304.11639,-0.0108
304.1164,-0.0102
304.11641,-0.0100
304.11642,-0.0102
304.11644,-0.0099
304.11645,-0.0102
304.11646,-0.0110
304.11647,-0.0105
304.11648,-0.0098
304.11649,-0.0099
304.1165,-0.0103
304.11652,-0.0103
304.11653,-0.0096
304.11654,-0.0100
304.11655,-0.0098
304.11656,-0.0096
304.11657,-0.0101
304.11659,-0.0102
304.1166,-0.0099
304.11661,-0.0092
304.11662,-0.0096
304.11663,-0.0105
304.11664,-0.0099
304.11666,-0.0086
304.11667,-0.0093
304.11668,-0.0097
304.11669,-0.0091
304.1167,-0.0093
304.11671,-0.0091
304.11672,-0.0096
304.11674,-0.0096
304.11675,-0.0097
304.11676,-0.0096
304.11677,-0.0092
304.11678,-0.0088
304.11679,-0.0090
304.11681,-0.0096
